#include <math.h> 
 #include <string.h> 
#include "./include/k2c_include.h" 
#include "./include/k2c_tensor_include.h" 

 


void ResNet_CIFAR10(k2c_tensor* input_1_input, k2c_tensor* dense_output) { 

size_t conv2d_stride[2] = {1,1}; 
size_t conv2d_dilation[2] = {1,1}; 
float conv2d_output_array[16384] = {0}; 
k2c_tensor conv2d_output = {&conv2d_output_array[0],3,16384,{32,32,16, 1, 1}}; 
float conv2d_padded_input_array[3468] = {0}; 
k2c_tensor conv2d_padded_input = {&conv2d_padded_input_array[0],3,3468,{34,34, 3, 1, 1}}; 
size_t conv2d_pad[4] = {1,1,1,1}; 
float conv2d_fill = 0.0f; 
float conv2d_kernel_array[432] = {
+1.25837564e-01f,-3.62951905e-02f,-3.02330703e-01f,-4.80943680e-01f,-4.81585979e-01f,
+3.86625230e-01f,+2.86985725e-01f,+4.70113397e-01f,+1.89308256e-01f,+4.53041434e-01f,
+2.95017362e-01f,+7.50605622e-03f,-5.70014238e-01f,-3.17592591e-01f,+8.27230364e-02f,
+6.01766944e-01f,+1.65516272e-01f,+6.95602447e-02f,-3.91792297e-01f,+2.65178867e-02f,
+1.89334348e-01f,+1.18592560e-01f,-4.44048584e-01f,-4.29934949e-01f,-4.27613437e-01f,
-1.59787387e-01f,-1.56659171e-01f,-8.05576220e-02f,-3.75357658e-01f,-8.95005390e-02f,
-5.00628948e-02f,-2.29535103e-01f,-2.35134840e-01f,-2.68368989e-01f,+1.80899218e-01f,
+5.10148630e-02f,+3.20810407e-01f,+8.31686929e-02f,+3.01434070e-01f,-3.80822331e-01f,
+9.36771035e-02f,+1.82081848e-01f,+7.17403069e-02f,+2.55859345e-01f,-3.21265571e-02f,
+1.40718371e-01f,-4.59646992e-03f,+1.91056028e-01f,+1.06244050e-01f,+2.14064330e-01f,
+3.14979464e-01f,-5.01995206e-01f,-3.16455930e-01f,-3.49702835e-01f,-1.11541972e-01f,
+5.16073465e-01f,+4.69835401e-01f,-7.41115883e-02f,+2.81905025e-01f,+2.80636907e-01f,
-3.50057244e-01f,-3.25321943e-01f,-2.47807167e-02f,-2.29776967e-02f,-8.10888261e-02f,
-1.82679623e-01f,+3.36425304e-01f,+4.27761644e-01f,+1.41459003e-01f,-6.49676919e-01f,
-1.09015211e-01f,-2.82381415e-01f,+4.05631483e-01f,-1.07407913e-01f,+3.59871946e-02f,
-3.13479781e-01f,-3.84322613e-01f,+1.20300025e-01f,-1.06717117e-01f,-7.64516592e-01f,
-2.98026264e-01f,-3.25829871e-02f,+1.62461922e-01f,-1.48886070e-01f,-1.40374005e-01f,
-4.19163525e-01f,+4.55378383e-01f,-3.25180620e-01f,+5.78473568e-01f,-1.61396369e-01f,
+1.07984595e-01f,+1.82395518e-01f,+4.49091643e-01f,+2.47129261e-01f,+5.30422851e-02f,
-3.28717619e-01f,+3.74812871e-01f,+1.16296217e-01f,-4.21615124e-01f,+2.97660287e-02f,
+1.47234336e-01f,-8.42184350e-02f,-1.97046265e-01f,+1.50606111e-01f,+4.31014150e-01f,
-2.82755196e-01f,-4.27342542e-02f,-1.58117756e-01f,+1.36766031e-01f,-2.45824128e-01f,
+1.24280356e-01f,+6.54852465e-02f,+8.37338045e-02f,-2.60624081e-01f,+2.25438774e-01f,
+3.21806818e-01f,+6.81790803e-03f,-2.82697767e-01f,+1.13148987e-01f,+1.82527795e-01f,
-5.83466478e-02f,-2.19130114e-01f,+2.08472639e-01f,-2.77597934e-01f,+7.52990901e-01f,
-4.50313315e-02f,-1.13792075e-02f,-1.73243091e-01f,-5.07209778e-01f,-5.82191832e-02f,
+2.46349759e-02f,-3.45872909e-01f,-6.25015199e-02f,-3.50920945e-01f,+1.16129667e-01f,
+3.12028062e-02f,-1.08502060e-01f,+2.18505748e-02f,-4.86127771e-02f,-1.67644054e-01f,
+3.12643290e-01f,-9.43818465e-02f,+1.31455272e-01f,+7.98694670e-01f,-4.41774964e-01f,
-7.18772411e-02f,+2.41825283e-01f,+7.32156308e-03f,-3.97099465e-01f,-3.80419791e-01f,
-2.50001252e-01f,+1.16164118e-01f,-4.90447097e-02f,+7.54899144e-01f,+2.19554231e-01f,
-3.60227600e-02f,+2.48115435e-01f,-6.29460812e-02f,-8.70134532e-02f,-7.01564411e-03f,
-4.87966761e-02f,-4.20858376e-02f,-2.74643600e-01f,+2.44503096e-01f,+5.13813831e-02f,
-9.41455662e-02f,-2.76980460e-01f,+3.58997971e-01f,-8.23039412e-02f,+2.87146449e-01f,
-9.16960090e-02f,+2.19419040e-03f,-3.62789661e-01f,+1.29004475e-03f,-5.34373708e-02f,
+1.84481829e-01f,+3.72291446e-01f,-8.94650966e-02f,-5.95137626e-02f,+1.04887657e-01f,
+3.48230541e-01f,-1.14867657e-01f,+6.10510893e-02f,+6.53290674e-02f,+1.12474263e-01f,
+5.75409591e-01f,-2.69641597e-02f,+2.77495682e-02f,+2.84668118e-01f,-5.90916201e-02f,
-2.91922241e-02f,-4.44253355e-01f,-3.71025391e-02f,-2.49642119e-01f,-3.41950059e-01f,
-1.11250319e-01f,-3.52507770e-01f,-2.52959907e-01f,+2.15386134e-03f,-9.39084589e-02f,
-4.94063437e-01f,-3.48892838e-01f,+8.10392424e-02f,-1.55589461e-01f,-1.21678673e-01f,
+4.17008735e-02f,+1.04027450e-01f,+8.50356370e-02f,+1.99713185e-01f,-3.39591771e-01f,
-3.71766269e-01f,+9.08313334e-01f,-3.37975882e-02f,+6.38767257e-02f,+3.09738982e-02f,
+1.01752184e-01f,+1.58790201e-01f,-3.11426789e-01f,-3.52435678e-01f,+9.08608511e-02f,
+2.58016318e-01f,+2.50996202e-01f,+1.22694053e-01f,+5.42762756e-01f,-6.09192103e-02f,
-2.80280769e-01f,-1.07999124e-01f,+1.36220932e-01f,-1.15631580e-01f,+4.85354289e-02f,
-4.78534371e-01f,+1.73651770e-01f,+4.64494884e-01f,-2.90794611e-01f,-1.40798375e-01f,
+2.12284982e-01f,-2.94191301e-01f,+3.49768728e-01f,+9.68599170e-02f,-9.94905755e-02f,
-9.93160829e-02f,+3.65091205e-01f,-2.46115044e-01f,+6.28741160e-02f,+4.78406064e-02f,
-8.30338746e-02f,+4.69194412e-01f,-2.24961936e-01f,-5.04074275e-01f,-8.57130736e-02f,
+1.66828781e-01f,+3.88512433e-01f,+1.31846862e-02f,-1.69544026e-01f,+1.17501907e-01f,
-6.48550451e-01f,-2.02526510e-01f,-8.14643949e-02f,-3.07605565e-01f,+1.72971606e-01f,
+1.42166197e-01f,+5.15947223e-01f,+5.91263711e-01f,+4.59383475e-03f,-5.37844300e-01f,
-1.40556976e-01f,+2.09796041e-01f,+2.44676873e-01f,+2.12552518e-01f,+8.24316740e-02f,
+9.81765017e-02f,+5.71668223e-02f,-9.30793956e-02f,+2.75130689e-01f,-4.46149647e-01f,
-2.99986631e-01f,+1.02192186e-01f,+1.94313988e-01f,-8.37556720e-02f,-2.08803624e-01f,
-9.31879804e-02f,+5.04414551e-02f,+1.63729582e-02f,-1.26311257e-01f,-2.78830063e-02f,
+1.28626853e-01f,-5.02002053e-02f,+6.19692914e-02f,-4.07086581e-01f,-2.02497244e-01f,
+6.39252722e-01f,+3.19324970e-01f,+3.98448616e-01f,-6.23725280e-02f,+1.00433588e-01f,
-4.42381769e-01f,+2.43539393e-01f,+5.29498048e-02f,-1.04541533e-01f,-2.03134790e-01f,
+4.96463031e-01f,+2.69140340e-02f,-9.43937078e-02f,+1.09499663e-01f,-2.51871045e-03f,
+1.09298006e-01f,+2.72253435e-02f,-4.04107422e-02f,+1.21428907e-01f,-1.19600194e-02f,
+4.28678751e-01f,+3.19972813e-01f,-2.65917987e-01f,-4.26283553e-02f,-1.59520432e-01f,
-3.21812630e-01f,-4.17951673e-01f,+7.65173733e-02f,+7.62673840e-02f,-4.52669300e-02f,
+3.81378010e-02f,+1.23382241e-01f,-4.12507541e-02f,-2.92929709e-01f,-1.41737610e-01f,
+1.50752068e-01f,+2.96676517e-01f,+2.62020350e-01f,+8.65669996e-02f,+9.74984542e-02f,
-6.71855360e-02f,-5.16783893e-02f,-3.34620953e-01f,-9.36876982e-02f,-5.89555427e-02f,
-3.55569035e-01f,+1.87314630e-01f,+1.42821506e-01f,+1.23496100e-01f,-2.82108724e-01f,
+3.63796920e-01f,+4.18890655e-01f,-2.67967433e-01f,-5.78313649e-01f,-4.96480353e-02f,
+1.10627919e-01f,-3.91704179e-02f,-1.22137316e-01f,+3.86978209e-01f,-6.85265288e-02f,
+6.46148324e-02f,+3.47884893e-02f,+2.88461775e-01f,+8.79958346e-02f,+2.70596951e-01f,
+5.03000468e-02f,-2.70975828e-01f,-1.72884643e-01f,-2.73273140e-01f,-5.45982063e-01f,
-2.40523875e-01f,-1.84391603e-01f,-3.75742108e-01f,-2.61433214e-01f,-3.29926014e-01f,
+2.33490951e-02f,+1.03899658e-01f,+5.94347060e-01f,+6.31254375e-01f,-6.01658449e-02f,
-1.11401677e-01f,-2.64559001e-01f,-1.62433475e-01f,+2.06361324e-01f,-5.78784764e-01f,
-8.31025094e-03f,-2.63655841e-01f,+2.71217823e-01f,-2.60414809e-01f,-1.02095507e-01f,
+1.79178953e-01f,+8.55912566e-02f,-1.96519364e-02f,-2.12845042e-01f,-4.38204914e-01f,
+2.77915984e-01f,+3.44757996e-02f,-2.28882059e-01f,+2.97020525e-01f,+4.34764504e-01f,
-9.97548550e-02f,+1.22655801e-01f,-3.21057513e-02f,-1.61966264e-01f,+7.84429610e-02f,
+1.23583965e-01f,+1.34159505e-01f,+8.95559117e-02f,+2.27564692e-01f,-4.24856484e-01f,
-1.17968336e-01f,-2.45393991e-01f,+3.32487613e-01f,+2.00413972e-01f,-3.18322450e-01f,
+5.14372706e-01f,+3.86109442e-01f,+2.49102652e-01f,+6.81923330e-02f,+2.09758058e-01f,
-1.32348165e-01f,+1.21532016e-01f,-1.79301932e-01f,+8.74334797e-02f,+3.12281940e-02f,
+2.29231566e-02f,+2.17092708e-01f,+2.27895603e-01f,+4.66912091e-01f,-6.33168221e-02f,
-8.90881494e-02f,+1.74536362e-01f,-3.95848155e-01f,+4.12539691e-01f,-9.47918817e-02f,
-3.91358078e-01f,-1.98342770e-01f,-1.70393601e-01f,-4.54627238e-02f,+1.92229897e-01f,
-2.89358526e-01f,+3.72043431e-01f,}; 
k2c_tensor conv2d_kernel = {&conv2d_kernel_array[0],4,432,{ 3, 3, 3,16, 1}}; 
float conv2d_bias_array[16] = {
-1.02275924e-04f,-9.62030681e-05f,-4.44482866e-04f,-1.87037443e-03f,+4.36086615e-04f,
-7.13427726e-04f,+8.05547577e-04f,-1.20788929e-03f,+8.98133847e-04f,-2.74880440e-03f,
-6.96302668e-05f,-3.33654694e-04f,+4.12308640e-04f,+8.35582177e-05f,-4.03762097e-04f,
-5.61552402e-03f,}; 
k2c_tensor conv2d_bias = {&conv2d_bias_array[0],1,16,{16, 1, 1, 1, 1}}; 

 
float batch_normalization_output_array[16384] = {0}; 
k2c_tensor batch_normalization_output = {&batch_normalization_output_array[0],3,16384,{32,32,16, 1, 1}}; 
size_t batch_normalization_axis = 2; 
float batch_normalization_mean_array[16] = {
-3.31087418e+01f,-5.84998970e+01f,-1.21775608e+01f,+1.31604815e+01f,-2.88093853e+01f,
-4.77273798e+00f,+6.35634804e+00f,-1.34289491e+00f,-6.07791615e+00f,+7.40470171e+00f,
-4.30557404e+01f,-6.81962433e+01f,+1.37304199e+00f,+3.69957085e+01f,+6.91182556e+01f,
-5.75702238e+00f,}; 
k2c_tensor batch_normalization_mean = {&batch_normalization_mean_array[0],1,16,{16, 1, 1, 1, 1}}; 
float batch_normalization_stdev_array[16] = {
+3.80857430e+01f,+4.71483688e+01f,+5.24992485e+01f,+4.42468262e+01f,+2.71128540e+01f,
+8.30912933e+01f,+3.86604729e+01f,+2.95142174e+01f,+6.54709549e+01f,+7.48006134e+01f,
+6.31727104e+01f,+4.40300484e+01f,+5.68284798e+01f,+5.51842155e+01f,+3.58419876e+01f,
+2.17528343e+01f,}; 
k2c_tensor batch_normalization_stdev = {&batch_normalization_stdev_array[0],1,16,{16, 1, 1, 1, 1}}; 
float batch_normalization_gamma_array[16] = {
+6.82150722e-01f,+4.61984903e-01f,+7.32033193e-01f,+5.75750113e-01f,+5.39374650e-01f,
+8.66111517e-01f,+6.24758005e-01f,+7.60886729e-01f,+7.49000490e-01f,+6.60216868e-01f,
+5.36291420e-01f,+7.06771016e-01f,+7.56188989e-01f,+2.89155543e-01f,+4.21146512e-01f,
+5.77335954e-01f,}; 
k2c_tensor batch_normalization_gamma = {&batch_normalization_gamma_array[0],1,16,{16, 1, 1, 1, 1}}; 
float batch_normalization_beta_array[16] = {
+1.55678242e-02f,-2.51077056e-01f,+5.25635779e-01f,+4.84393328e-01f,-7.09040910e-02f,
+1.26705438e-01f,+6.20124996e-01f,+5.60988247e-01f,+1.13421902e-01f,+3.69690061e-01f,
-2.20120147e-01f,-3.74866545e-01f,+7.61094868e-01f,+2.13900264e-02f,-1.27738789e-01f,
+1.29260600e+00f,}; 
k2c_tensor batch_normalization_beta = {&batch_normalization_beta_array[0],1,16,{16, 1, 1, 1, 1}}; 


size_t conv2d_1_stride[2] = {1,1}; 
size_t conv2d_1_dilation[2] = {1,1}; 
float conv2d_1_output_array[16384] = {0}; 
k2c_tensor conv2d_1_output = {&conv2d_1_output_array[0],3,16384,{32,32,16, 1, 1}}; 
float conv2d_1_padded_input_array[18496] = {0}; 
k2c_tensor conv2d_1_padded_input = {&conv2d_1_padded_input_array[0],3,18496,{34,34,16, 1, 1}}; 
size_t conv2d_1_pad[4] = {1,1,1,1}; 
float conv2d_1_fill = 0.0f; 
float conv2d_1_kernel_array[2304] = {
+4.86836731e-02f,+2.02684365e-02f,-1.04232341e-01f,+1.22799046e-01f,-1.43578768e-01f,
-2.75538951e-01f,+2.94941813e-01f,-2.87821647e-02f,+1.51535571e-01f,-1.22686751e-01f,
+3.71165052e-02f,-7.81811122e-03f,-8.81462246e-02f,-7.19348416e-02f,-1.01060132e-02f,
-2.31758833e-01f,+2.43280753e-02f,-4.21030633e-02f,+2.06899762e-01f,+4.74013528e-03f,
+6.00500517e-02f,-5.18987738e-02f,+1.80000588e-01f,-2.25660726e-02f,+9.04439986e-02f,
-4.33923677e-02f,+1.17337495e-01f,+8.24751332e-02f,+7.60950521e-02f,+2.05725178e-01f,
-3.48037332e-02f,-4.06684652e-02f,+1.06927855e-02f,-2.69166883e-02f,-4.03762050e-02f,
-3.32018793e-01f,-2.43457705e-01f,+1.05948374e-01f,+5.32137230e-02f,-1.76239863e-01f,
+2.00987488e-01f,+2.43333966e-01f,-6.04071803e-02f,-2.43199244e-01f,+2.61244059e-01f,
-1.34587362e-01f,+2.62581170e-01f,-1.09709628e-01f,-1.37634426e-02f,+2.44053397e-02f,
+3.15886140e-01f,-2.26532653e-01f,-2.99111396e-01f,-9.31633934e-02f,+8.40014294e-02f,
-5.91645315e-02f,-2.14099791e-02f,-1.79815739e-01f,+2.53856424e-02f,-2.89643742e-03f,
+1.17574036e-01f,+8.75944346e-02f,-8.42674449e-02f,-1.85318273e-02f,-5.24048284e-02f,
+3.85801159e-02f,-1.91840902e-02f,+6.26048893e-02f,+1.15419731e-01f,+1.19071417e-02f,
-8.51132423e-02f,+3.21136564e-02f,-5.90341836e-02f,-5.72627746e-02f,+7.34822676e-02f,
-4.71007898e-02f,+1.92172062e-02f,-6.16507940e-02f,-9.29908231e-02f,+1.11563444e-01f,
+8.41801465e-02f,+1.37269974e-01f,+1.16050407e-01f,-3.21888834e-01f,-7.63702989e-02f,
+8.49101767e-02f,+1.39802486e-01f,-2.07858980e-01f,-8.05572495e-02f,+2.91160028e-02f,
+6.20566355e-03f,+8.12588185e-02f,+2.36206334e-02f,-1.30678907e-01f,+9.86387655e-02f,
-9.37287509e-03f,+2.97207367e-02f,+5.19019216e-02f,+2.56354839e-01f,-2.38530695e-01f,
-2.97624737e-01f,+1.92891389e-01f,+2.26503789e-01f,-2.51920726e-02f,-1.48154929e-01f,
-2.32075214e-01f,-9.45247412e-02f,-6.36652187e-02f,-3.64616625e-02f,+1.55536771e-01f,
-2.64961779e-01f,-2.10894197e-01f,+2.05439568e-01f,+5.13957441e-02f,+1.06067263e-01f,
-1.13985136e-01f,+4.31097560e-02f,+6.33683056e-02f,-1.11501418e-01f,-1.83296219e-01f,
-3.19270529e-02f,+3.43536735e-01f,+1.89844072e-02f,-5.51400818e-02f,+3.23122442e-02f,
+4.17640246e-02f,+8.51638839e-02f,+1.64428517e-01f,-4.78138886e-02f,-1.45987213e-01f,
+8.92691985e-02f,-1.98145598e-01f,-9.23348963e-02f,-7.21073747e-02f,-1.16498895e-01f,
+6.53548837e-02f,+9.04334486e-02f,-1.36874933e-02f,+6.46508858e-02f,+1.04831317e-02f,
+3.99703197e-02f,-1.68797091e-01f,+1.32724702e-01f,+2.69147426e-01f,-7.70843821e-03f,
+3.93574461e-02f,-1.45157993e-01f,-2.94824708e-02f,-1.14143014e-01f,-8.32614899e-02f,
+1.54151157e-01f,-6.61696717e-02f,+5.44607975e-02f,+5.60662001e-02f,-8.38163774e-03f,
-1.00699358e-03f,-5.06647527e-02f,-1.55426309e-01f,+9.32193175e-02f,-8.19039792e-02f,
+5.22809941e-03f,+1.00312056e-02f,-8.94297734e-02f,+4.02607620e-02f,-8.56390893e-02f,
-9.29655433e-02f,-3.63757461e-02f,+3.54583822e-02f,+3.64280045e-02f,-1.02923855e-01f,
+2.11470164e-02f,-2.82671098e-02f,-2.45532040e-02f,-3.84325124e-02f,-1.53108969e-01f,
+8.74551758e-02f,+2.36487463e-02f,-3.33156399e-02f,+5.33667877e-02f,-2.46007740e-02f,
-1.38811857e-01f,+1.50511980e-01f,-4.25047465e-02f,-2.82559860e-02f,+1.74944513e-02f,
+1.29715815e-01f,+1.92931239e-02f,-6.07651249e-02f,-1.86793700e-01f,-1.86068285e-02f,
+1.42607212e-01f,+2.97146142e-01f,+8.26477632e-03f,+1.52899772e-01f,-5.01828492e-02f,
+4.45059612e-02f,-5.71215339e-03f,+8.61798003e-02f,+2.32972316e-02f,-8.44055787e-03f,
+5.92159256e-02f,-2.51148678e-02f,+1.77233890e-02f,+5.58924675e-03f,-3.53027731e-02f,
+2.87746098e-02f,+4.45607444e-03f,+6.20240085e-02f,+7.09793270e-02f,+7.66094483e-04f,
+9.92852300e-02f,+7.06658959e-02f,-1.80972368e-01f,-3.85867693e-02f,-6.05516741e-03f,
+7.65939280e-02f,+1.12259202e-01f,-1.56508405e-02f,-6.05255775e-02f,-3.92917171e-02f,
+6.55733123e-02f,+9.55119804e-02f,+1.03317618e-01f,-3.53986509e-02f,-1.45562887e-01f,
+7.82259479e-02f,+2.46548474e-01f,+1.27967566e-01f,+1.23104267e-01f,+1.05517142e-01f,
+1.56954527e-01f,-1.24747818e-02f,-1.75307661e-01f,-2.39736214e-02f,+3.02220639e-02f,
-3.20979171e-02f,-1.25521302e-01f,+3.70110571e-02f,-8.79718363e-02f,+1.01890661e-01f,
-5.16013708e-03f,+1.24120779e-01f,+8.95813033e-02f,-1.29836006e-02f,-9.13209021e-02f,
+5.99761754e-02f,+2.05042168e-01f,-1.55827627e-01f,+1.87016353e-01f,-1.88561141e-01f,
+1.10758059e-01f,-1.91713631e-01f,+8.47688094e-02f,+2.10746482e-01f,+5.59155084e-02f,
-3.61280739e-02f,+1.99840851e-02f,+4.75970209e-02f,-9.92888398e-03f,-2.29326248e-01f,
+3.53381922e-03f,+1.55071065e-01f,+2.05495805e-01f,-6.18408732e-02f,+1.38407663e-01f,
+1.27207369e-01f,+3.10721248e-01f,-7.95235932e-02f,+1.45579219e-01f,-6.15572631e-02f,
+3.78047191e-02f,+7.22341388e-02f,-6.47876784e-02f,-1.18241683e-01f,+2.35791758e-01f,
-1.03142269e-01f,+8.67320970e-03f,+8.59968364e-02f,+7.24388957e-02f,+6.09318465e-02f,
-7.99160302e-02f,+5.74739650e-02f,+1.41750276e-01f,+8.88072476e-02f,+1.44116446e-01f,
-2.46147104e-02f,-1.09271802e-01f,-1.12964706e-02f,-3.17513764e-01f,+1.75733596e-01f,
-1.17719747e-01f,-3.50385100e-01f,+1.22726150e-01f,-3.37769575e-02f,-3.06974743e-02f,
-1.47259608e-01f,-1.98443923e-02f,-2.58030117e-01f,+6.20194674e-02f,-5.81610203e-02f,
+2.98337579e-01f,-1.28500089e-01f,+4.45011770e-03f,-1.05983377e-01f,+1.39569655e-01f,
+7.42072389e-02f,+3.53814214e-02f,+3.45327519e-02f,-1.92451343e-01f,+1.17680043e-01f,
+1.17464185e-01f,-1.31491005e-01f,+5.51721491e-02f,-9.53628197e-02f,+5.95083535e-02f,
-2.99231052e-01f,-3.25217359e-02f,+2.53038973e-01f,-1.92830175e-01f,-1.42180279e-01f,
-2.14764759e-01f,+1.53751135e-01f,+7.82069340e-02f,+2.77904570e-02f,+2.55913790e-02f,
-1.93135008e-01f,-2.15692213e-03f,+1.67178623e-02f,-1.13635771e-01f,+2.46337429e-01f,
+1.22822888e-01f,-8.24522972e-02f,+6.75058458e-04f,-3.50312181e-02f,-6.31580427e-02f,
-4.12055245e-03f,+2.36401986e-02f,+1.22597821e-01f,-5.22256196e-02f,-2.30442971e-01f,
+7.66667053e-02f,-1.41323805e-01f,+1.83130167e-02f,-2.70389467e-02f,+1.12840548e-01f,
-5.95545024e-02f,+8.97332355e-02f,-9.47411507e-02f,+1.13116257e-01f,-9.38304365e-02f,
+1.44695356e-01f,-1.40744392e-02f,+6.21574037e-02f,-2.17572395e-02f,-2.92692423e-01f,
-1.61013603e-01f,-1.42578632e-01f,-2.36670494e-01f,+2.38665134e-01f,+1.36857495e-01f,
-6.33754283e-02f,+1.16664194e-01f,+9.33933910e-03f,-5.09480089e-02f,-2.12118000e-01f,
-1.65870398e-01f,-8.86508301e-02f,-2.61396855e-01f,-2.74391949e-01f,-2.44228765e-01f,
-2.27965072e-01f,-2.49490991e-01f,-2.92536259e-01f,-2.87298292e-01f,-7.03462213e-02f,
+3.83519560e-01f,+2.54573766e-02f,-6.77070320e-01f,+6.87722191e-02f,+8.62545222e-02f,
+6.07208423e-02f,-7.23617449e-02f,+1.67390868e-01f,-1.42555967e-01f,-6.11750111e-02f,
-3.15018743e-02f,+6.22698814e-02f,+1.36728927e-01f,+3.88936661e-02f,-3.07152402e-02f,
+1.69979017e-02f,+3.42681669e-02f,+3.45511176e-02f,-2.80864835e-01f,+1.68423593e-01f,
-9.05044843e-03f,+1.62618095e-03f,+3.45683359e-02f,-2.24227384e-02f,+1.12957150e-01f,
-5.93474172e-02f,+2.31483802e-01f,-9.62044597e-02f,+4.48599346e-02f,+5.40931383e-03f,
+8.87514874e-02f,+1.09804019e-01f,+6.38188049e-02f,+1.03484839e-01f,-1.14453785e-01f,
+3.07381570e-01f,+4.50339913e-02f,-2.82154810e-02f,-1.89795140e-02f,-6.62716702e-02f,
-1.12584941e-01f,-1.35103226e-01f,+3.51978764e-02f,+6.13792762e-02f,+5.86224627e-03f,
-9.61390673e-04f,+5.55156320e-02f,-3.74476649e-02f,+7.36675113e-02f,-8.33011195e-02f,
-3.04426178e-02f,-4.02057134e-02f,+7.03564361e-02f,-4.75042015e-02f,-4.61015403e-02f,
-1.05474487e-01f,+1.62418163e-03f,-2.80486345e-01f,+1.63312346e-01f,+1.38201509e-02f,
+1.17041931e-01f,+1.90925226e-02f,-2.22286414e-02f,+1.77097283e-02f,+2.65236050e-01f,
-1.43657653e-02f,+1.04105256e-01f,+8.13291445e-02f,+1.87048361e-01f,-2.14547455e-01f,
-6.73291236e-02f,+2.53967822e-01f,+4.52221325e-03f,+6.96886107e-02f,+5.02299517e-02f,
+1.09514572e-01f,+8.91621411e-03f,+3.59166749e-02f,-5.04263937e-02f,-1.07755335e-02f,
-1.26057982e-01f,-1.03704326e-01f,+7.34184235e-02f,+3.72851118e-02f,+2.35514328e-01f,
-1.13969073e-01f,-5.74200898e-02f,-1.18184775e-01f,-9.00104046e-02f,-8.10965970e-02f,
+4.29849215e-02f,+1.87354699e-01f,+6.27407581e-02f,-2.34736398e-01f,-2.03725863e-02f,
+9.04527754e-02f,+7.38079697e-02f,-4.97288182e-02f,-1.54510587e-02f,-6.30956739e-02f,
-9.49274749e-02f,-2.47466844e-02f,+7.14318007e-02f,+1.08956784e-01f,+6.91734701e-02f,
-6.93231001e-02f,+3.85824516e-02f,+1.91744596e-01f,+1.25966147e-01f,+5.72572872e-02f,
-8.63979459e-02f,+1.23131268e-01f,+1.20071210e-01f,-1.72977433e-01f,-1.47434741e-01f,
+1.04588434e-01f,+1.97355896e-01f,-9.16121602e-02f,-1.15048774e-02f,-5.78463301e-02f,
-1.99927576e-02f,+3.70192043e-02f,+2.65504152e-01f,+3.35249044e-02f,-2.18707547e-01f,
-2.31201768e-01f,+1.68236211e-01f,-3.96403437e-03f,-3.25346470e-01f,-1.11194260e-01f,
+2.11891145e-01f,+1.65758818e-01f,-1.18691917e-03f,+2.47884408e-01f,+9.85704660e-02f,
-6.19262736e-03f,+2.83067096e-02f,-1.75719798e-01f,+7.86459371e-02f,-5.31701297e-02f,
-1.13018133e-01f,+1.21537767e-01f,+1.81824699e-01f,+2.19485700e-01f,-2.43515652e-02f,
+8.03696215e-02f,-1.29271094e-02f,+9.67710912e-02f,-2.41484679e-02f,-1.04054697e-02f,
+1.02453485e-01f,+2.06114978e-01f,-7.10230544e-02f,+7.31202438e-02f,+1.09476922e-03f,
-1.00238316e-01f,-7.92246088e-02f,-2.40462631e-01f,-1.09209232e-01f,+6.61042929e-02f,
-3.75910141e-02f,-1.80994868e-01f,-4.25994359e-02f,+1.13602512e-01f,-5.68867773e-02f,
+2.26061270e-01f,-4.17062677e-02f,-1.35822475e-01f,-1.80523232e-01f,-1.65205207e-02f,
+1.26915231e-01f,-8.27311873e-02f,-6.62969425e-02f,+1.14095896e-01f,+2.20680293e-02f,
-2.07880035e-01f,-4.34844755e-02f,-2.31189832e-01f,+2.52544545e-02f,-5.51728457e-02f,
+8.30993950e-02f,+2.44347632e-01f,-5.90338744e-02f,-9.68540367e-03f,+1.77556872e-01f,
-1.23055182e-01f,+1.38856262e-01f,-9.53236297e-02f,+2.44139180e-01f,+2.54763365e-01f,
+1.08590648e-01f,-1.12081058e-01f,+6.46395981e-02f,-2.94227749e-01f,+5.90923391e-02f,
+2.20330665e-03f,-2.04689324e-01f,-4.61417995e-02f,+1.29175916e-01f,-8.90453979e-02f,
+6.97135925e-02f,+6.56698644e-02f,+1.10712379e-01f,+2.98419893e-02f,+5.88519163e-02f,
+1.12864771e-03f,-4.22526430e-03f,-2.08245311e-02f,-1.14491377e-02f,+1.72865856e-02f,
+5.22700399e-02f,+5.51509634e-02f,-9.70702898e-03f,+8.41052234e-02f,-1.65167198e-01f,
-3.38633806e-02f,+6.20981827e-02f,+2.19649952e-02f,+1.80488899e-01f,+8.59908387e-02f,
-1.64298207e-01f,+6.56542182e-02f,+5.17838635e-02f,+1.23804979e-01f,+1.54119700e-01f,
+3.79666649e-02f,+3.68909314e-02f,+4.91716992e-03f,+1.41166776e-01f,-1.03447944e-01f,
-3.03000342e-02f,-6.59809336e-02f,+7.21432269e-02f,+1.57826677e-01f,+3.96833792e-02f,
-2.75679678e-01f,-8.04672297e-03f,-9.49959531e-02f,-3.05880085e-02f,+2.89393384e-02f,
-1.35893375e-01f,+2.16147602e-01f,+9.61316004e-02f,-1.19356718e-02f,-2.15151310e-02f,
+9.80352312e-02f,+1.45067185e-01f,-5.47083430e-02f,+1.24266461e-01f,+1.31974146e-01f,
-1.47416696e-01f,+3.99909206e-02f,+2.45475918e-01f,-2.22365528e-01f,+7.29493871e-02f,
+1.18376063e-02f,+1.83986016e-02f,+9.84713063e-02f,+2.04045147e-01f,+5.57617433e-02f,
+5.92812672e-02f,-2.57128209e-01f,-7.14783445e-02f,+9.80491713e-02f,+7.27623925e-02f,
+1.01318277e-01f,+7.15145245e-02f,+5.41167893e-03f,+2.01893315e-01f,+2.04634771e-01f,
-7.53585920e-02f,-2.43777763e-02f,-3.51179503e-02f,-3.84362563e-02f,+2.08366513e-02f,
+9.88525301e-02f,+7.79547021e-02f,-8.25987197e-03f,-2.44134758e-02f,+8.82881954e-02f,
+1.31736575e-02f,-3.90253477e-02f,+1.66659206e-01f,-2.39469353e-02f,+4.53110784e-02f,
-3.28875542e-01f,-1.51456699e-01f,+3.34834270e-02f,-3.22600603e-02f,-9.85870734e-02f,
-2.24616617e-01f,+1.74937859e-01f,-8.73093382e-02f,-8.99716765e-02f,+1.32310957e-01f,
-3.64949554e-02f,-1.15747117e-01f,+5.78583358e-03f,-3.16572338e-02f,-1.84807047e-01f,
+2.25345623e-02f,+1.93157401e-02f,-3.61566730e-02f,-1.83938798e-02f,+4.75721508e-02f,
-1.16087347e-01f,-3.52208391e-02f,-6.54191375e-02f,+5.02613671e-02f,-7.79297994e-03f,
+2.61717681e-02f,-3.11573818e-02f,-1.05038717e-01f,-5.92678115e-02f,+2.37020612e-01f,
+1.12740442e-01f,+9.55357552e-02f,-1.26421690e-01f,-1.74751431e-01f,-5.72801717e-02f,
+2.73334801e-01f,-1.76281184e-01f,-1.20919548e-01f,+1.00935660e-01f,+1.68404371e-01f,
-1.38976738e-01f,-1.55150086e-01f,+2.67253011e-01f,-3.97455320e-02f,-1.99796870e-01f,
+2.39126687e-03f,-2.98695546e-02f,+6.33981526e-02f,+3.86305749e-02f,-9.58121419e-02f,
+7.89179874e-04f,+1.50607392e-01f,-8.76252726e-02f,-1.27748460e-01f,-2.93743908e-02f,
-8.68031010e-02f,-9.35412198e-02f,+8.63685738e-03f,+1.22353341e-02f,-9.63084251e-02f,
+3.16128158e-03f,-5.96027784e-02f,+1.12005863e-02f,+1.51677787e-01f,-1.36889130e-01f,
-2.08458230e-02f,+1.49411270e-02f,+6.95171505e-02f,-8.46121386e-02f,+1.28948495e-01f,
-2.24925816e-01f,-3.73559594e-02f,-4.81570885e-02f,+2.44155563e-02f,-9.47877094e-02f,
+1.43496677e-01f,+7.23957866e-02f,-2.78173089e-02f,+2.71298647e-01f,+3.15005183e-02f,
+8.42253789e-02f,-2.25217314e-03f,+1.05624095e-01f,+1.64033413e-01f,-1.08105736e-02f,
-1.25584066e-01f,+1.13822393e-01f,+5.13852723e-02f,-5.54939173e-02f,-1.26730457e-01f,
-1.16195701e-01f,-3.44514214e-02f,-9.18894410e-02f,+2.39745408e-01f,-5.17025366e-02f,
+4.82846014e-02f,-5.69753610e-02f,-7.50772282e-02f,+4.12747897e-02f,+5.10395830e-03f,
-3.38320553e-01f,+3.11035477e-02f,+6.20883666e-02f,+7.11404756e-02f,-3.82561199e-02f,
-7.94672668e-02f,-1.24106653e-01f,-9.80023146e-02f,-8.09505209e-02f,+7.98766017e-02f,
-3.11995614e-02f,+9.90889370e-02f,-3.78363729e-02f,-8.23048130e-02f,-6.41468167e-02f,
+6.09206446e-02f,-1.20644607e-02f,+1.60123885e-01f,-7.23143443e-02f,+4.41647507e-02f,
+2.15826109e-01f,-2.32410450e-02f,+2.00379398e-02f,-1.36685178e-01f,-3.47866677e-02f,
-7.72305652e-02f,+1.04753919e-01f,+1.10608889e-02f,+8.52311403e-02f,-1.48063421e-01f,
+3.28513868e-02f,-9.44770798e-02f,+1.38654500e-01f,+5.45250885e-02f,+9.45075303e-02f,
+5.20016365e-02f,+1.25639200e-01f,+3.79552692e-02f,-1.41141728e-01f,+1.26881570e-01f,
+1.25172347e-01f,-3.43824290e-02f,-1.91567410e-02f,+3.76643427e-02f,-1.59458667e-01f,
-5.32245636e-02f,+1.51867330e-01f,+1.29616067e-01f,+1.39540881e-01f,-3.18990588e-01f,
-8.84317532e-02f,+2.04736255e-02f,-2.50687361e-01f,-8.16806108e-02f,-6.00353405e-02f,
-3.79794180e-01f,+2.18580395e-01f,-1.32111415e-01f,+2.31630877e-01f,-6.02387786e-02f,
-2.55662412e-03f,-3.61634135e-01f,+8.91745538e-02f,-7.74396816e-03f,+6.57387450e-02f,
-1.19941577e-01f,-1.45272389e-02f,+1.46984547e-01f,+2.04176195e-02f,+4.16558012e-02f,
+3.83912250e-02f,-1.73211947e-01f,+5.11998646e-02f,-7.59170726e-02f,-6.95521757e-02f,
+3.73346545e-02f,+2.12925494e-01f,+2.58282293e-02f,-1.13125853e-01f,-1.47611145e-02f,
-8.20530485e-03f,+8.31380486e-02f,+1.24632485e-01f,-4.72924300e-02f,-5.69303967e-02f,
+7.12510152e-03f,-5.09364530e-02f,-3.59989814e-02f,-5.28079383e-02f,-1.72219321e-01f,
+1.68352649e-01f,-2.04390451e-01f,-1.08747721e-01f,-7.01191276e-02f,-1.88996289e-02f,
+1.59279853e-01f,-2.19506621e-01f,+3.66351426e-01f,+4.15274948e-02f,+1.08047768e-01f,
-8.25107470e-02f,-1.29913762e-01f,+7.18797594e-02f,+1.61620311e-03f,+8.44393373e-02f,
-4.06167023e-02f,+3.51897329e-02f,-1.34249687e-01f,-9.06720664e-03f,+4.22107786e-01f,
+4.38180901e-02f,-5.29672980e-01f,-1.17577901e-02f,+6.91180453e-02f,-3.50590376e-03f,
-2.03278288e-01f,+1.08204022e-01f,+3.65123272e-01f,+5.96779063e-02f,+1.19607285e-01f,
-5.86470775e-02f,+6.02164306e-02f,+2.82732416e-02f,+1.34315208e-01f,+5.94751909e-02f,
+7.45693371e-02f,+1.44746080e-01f,+1.06886193e-01f,+4.16238420e-02f,-5.03587842e-01f,
+1.03959190e-02f,+7.40339905e-02f,-2.50018626e-01f,-7.80167580e-02f,-3.06014251e-02f,
+4.83732596e-02f,-2.26281017e-01f,-6.82430267e-02f,-2.17733532e-01f,+7.52573926e-03f,
+4.13185209e-02f,-2.93430746e-01f,+1.52216226e-01f,+6.02765307e-02f,+2.60247290e-02f,
-3.54592055e-01f,+1.80076994e-03f,-3.27284932e-02f,-1.03123486e-01f,+5.14154807e-02f,
+6.14262745e-02f,-2.71946043e-01f,+5.80251254e-02f,-2.93276515e-02f,-1.55553564e-01f,
+1.59661695e-02f,-2.16642588e-01f,-4.34372798e-02f,+8.22202787e-02f,+6.25009164e-02f,
-8.70307628e-03f,-2.37180796e-02f,-1.49748828e-02f,+4.12099250e-02f,+5.73043432e-03f,
+3.25243548e-02f,+5.96349239e-02f,-1.85216114e-01f,-8.34323640e-04f,+9.19477344e-02f,
+5.81817850e-02f,+5.46008023e-03f,-5.64954504e-02f,-2.29293648e-02f,-9.98527259e-02f,
+1.42530594e-02f,+5.29421940e-02f,+9.10679623e-02f,-1.26843452e-02f,-2.81286627e-01f,
-1.44541347e-02f,+3.37494873e-02f,-6.13461472e-02f,-8.94521736e-03f,+4.95619252e-02f,
-7.78592378e-02f,+7.75659084e-02f,+6.70014462e-03f,+3.94403301e-02f,+2.72139907e-03f,
-5.49723953e-02f,-6.36767447e-02f,-1.54691627e-02f,-4.93590608e-02f,+9.81632322e-02f,
-4.48087826e-02f,+5.20363674e-02f,-4.61831652e-02f,+1.58735795e-03f,+1.07355930e-01f,
-5.36342822e-02f,-8.28333125e-02f,-1.52497888e-01f,+9.91115421e-02f,-2.17569903e-01f,
-2.47595571e-02f,-4.80264835e-02f,-4.64346074e-02f,-3.34264189e-02f,-1.67252496e-01f,
+9.86404419e-02f,-3.56196351e-02f,-1.13453723e-01f,+3.18176933e-02f,+1.58969730e-01f,
+3.51492018e-01f,+1.50398046e-01f,-5.17343320e-02f,+1.86173901e-01f,+8.67711604e-02f,
-4.92621735e-02f,-8.18510428e-02f,-7.22196652e-04f,+1.93475768e-01f,+3.34800929e-02f,
-8.96945298e-02f,-3.04778870e-02f,+1.53103936e-02f,-1.63875654e-01f,-5.97227514e-02f,
+1.82891324e-01f,-1.60161689e-01f,-1.88528106e-01f,+1.68094262e-01f,+3.14409211e-02f,
-5.39002987e-03f,+6.48526251e-02f,+1.17379636e-01f,-1.08463801e-01f,-9.20396671e-02f,
-1.49432108e-01f,+3.59129421e-02f,+9.68946069e-02f,-3.34269628e-02f,+6.12672716e-02f,
+2.49119606e-02f,+2.12065965e-01f,+4.86318916e-02f,-1.02330454e-01f,-4.77511771e-02f,
+1.03707965e-02f,+5.20035997e-02f,-6.86765164e-02f,-1.01069979e-01f,+3.45378891e-02f,
+3.82873267e-01f,+2.38895476e-01f,+9.20641944e-02f,+2.15790212e-01f,+1.07789420e-01f,
-3.26192111e-01f,-1.16488725e-01f,+1.89530328e-02f,+6.33532330e-02f,-1.01990603e-01f,
-2.87931003e-02f,-3.45924422e-02f,-1.31289646e-01f,-1.00063495e-01f,-9.94525552e-02f,
-1.71858504e-01f,+4.91828695e-02f,+6.79891929e-02f,-3.04411706e-02f,+7.17165321e-02f,
-6.30173385e-02f,-5.01951091e-02f,-3.59392725e-02f,-1.01735711e-01f,+1.02227405e-01f,
-2.42499992e-01f,-1.46387741e-01f,+1.58246472e-01f,-1.09833427e-01f,+3.66942473e-02f,
-7.43856952e-02f,-2.03556776e-01f,+1.56369358e-01f,-3.22260410e-02f,-5.14459647e-02f,
+7.13628232e-02f,+6.48689494e-02f,-4.33292873e-02f,-1.24145024e-01f,-2.01691493e-01f,
+1.11544885e-01f,-4.73037772e-02f,+2.27440342e-01f,-1.00998335e-01f,+1.49459198e-01f,
-2.77190227e-02f,-9.31778401e-02f,-2.53172442e-02f,+2.38072500e-01f,-1.56656384e-01f,
+4.36849706e-02f,+3.66879739e-02f,-1.11878373e-01f,-5.12134910e-01f,-2.41131499e-01f,
-9.35096741e-02f,-1.57715410e-01f,+1.81405216e-01f,-4.32948060e-02f,-4.99159731e-02f,
-8.53741691e-02f,-2.71321177e-01f,-9.65182844e-04f,+1.14357240e-01f,-1.65452510e-01f,
+1.28193676e-01f,+4.18538958e-01f,-1.29044242e-02f,-1.90293461e-01f,+1.51238307e-01f,
+1.30152211e-01f,+4.58706133e-02f,-7.79822692e-02f,-1.07002810e-01f,+7.48363510e-02f,
+1.10998489e-02f,-6.17333055e-02f,-5.63063957e-02f,+9.86894406e-03f,-2.22471077e-02f,
+5.40530868e-02f,-2.13919263e-02f,+2.96154302e-02f,+2.86570460e-01f,-9.27055255e-02f,
+1.40416294e-01f,+5.43428287e-02f,+1.75227508e-01f,-1.70893922e-01f,+6.28108382e-02f,
-2.72897094e-01f,+5.77776209e-02f,-1.57485723e-01f,+1.19669899e-01f,-4.60489728e-02f,
-9.41918120e-02f,-1.97148740e-01f,+5.81371458e-03f,-5.88853955e-02f,+1.32206261e-01f,
-1.72854569e-02f,+3.24898167e-03f,-3.13224643e-02f,-1.03222318e-01f,+7.58457705e-02f,
-3.23629767e-01f,-1.19944975e-01f,-3.78356099e-01f,-8.72693732e-02f,-1.05131671e-01f,
+1.87938631e-01f,+1.76646356e-02f,+5.90411313e-02f,+7.61615783e-02f,+2.47407146e-02f,
+1.35116994e-01f,-1.71054333e-01f,+6.21758625e-02f,-1.85513888e-02f,+2.00141653e-01f,
-1.46745637e-01f,+3.27814408e-02f,-2.00191826e-01f,-8.34565237e-02f,-6.00952245e-02f,
+9.74883363e-02f,-1.19384557e-01f,+1.91804305e-01f,+2.66289324e-01f,-1.75958380e-01f,
+5.80215394e-01f,+1.84259973e-02f,+2.56832510e-01f,-3.05837020e-02f,+7.81864077e-02f,
-1.84058040e-01f,-8.06115791e-02f,-4.26423959e-02f,-1.36394054e-01f,-3.74355949e-02f,
+2.31788144e-01f,-1.01348691e-01f,+2.98145227e-02f,+7.68207982e-02f,+2.29364634e-02f,
-8.91479030e-02f,+6.85149133e-02f,+1.05535708e-01f,-2.00070247e-01f,-2.43512526e-01f,
+1.18854471e-01f,+1.30169466e-01f,-3.05343494e-02f,+1.15994886e-01f,+1.82252079e-01f,
-3.35121363e-01f,+1.92693934e-01f,+3.18976551e-01f,-1.63813829e-01f,-7.56576136e-02f,
+1.52576566e-01f,+6.85881823e-02f,-1.61182702e-01f,+1.55176401e-01f,+6.25511482e-02f,
-1.06497608e-01f,-9.08942521e-02f,+6.17106119e-03f,-3.01205426e-01f,-2.66224831e-01f,
+1.40849411e-01f,+2.02027217e-01f,+4.97918911e-02f,+2.06718547e-03f,-1.66454595e-02f,
-1.96316868e-01f,-2.30422504e-02f,-6.97827637e-02f,-1.49998143e-01f,-6.68398151e-03f,
-2.09902599e-01f,-1.11173950e-01f,+3.06281564e-03f,+2.30880808e-02f,-4.42824103e-02f,
-1.48684204e-01f,-5.56149147e-02f,+3.92076410e-02f,+9.19598788e-02f,+8.96907896e-02f,
+4.63230014e-02f,-4.61122058e-02f,-1.10881224e-01f,+9.91778746e-02f,-1.24342673e-01f,
+9.00012553e-02f,+1.37866229e-01f,+1.35005847e-01f,+1.35712534e-01f,+3.36004347e-02f,
-6.62238970e-02f,-2.64020145e-01f,+6.75655250e-03f,-1.35111392e-01f,-1.22981362e-01f,
+8.52080584e-02f,-1.31389126e-01f,-2.18710288e-01f,+1.94919571e-01f,+5.80740497e-02f,
+3.44267368e-01f,+1.63661063e-01f,+1.20874010e-01f,-1.65405050e-01f,-2.92801470e-01f,
+1.36962682e-01f,-5.76496832e-02f,-2.30446439e-02f,+2.23505460e-02f,+3.13822597e-01f,
+4.74952683e-02f,-1.99483588e-01f,-1.14243679e-01f,+2.80687548e-02f,-4.87828441e-02f,
-7.41825551e-02f,-4.62672859e-02f,+1.55128194e-02f,-7.64541775e-02f,-1.18759789e-01f,
-8.47940370e-02f,+2.19521284e-01f,+1.00474693e-02f,-6.47025034e-02f,+7.86205828e-02f,
+6.60194457e-02f,+5.21579571e-03f,+1.23020476e-02f,-1.45428747e-01f,-1.03925347e-01f,
-5.15419915e-02f,-6.08159453e-02f,-3.00059151e-02f,+1.27834737e-01f,+9.88460779e-02f,
+1.46050349e-01f,-1.42390514e-03f,+1.59534782e-01f,-2.07034890e-02f,+2.05910265e-01f,
-9.44226459e-02f,+3.75890166e-01f,+6.38328791e-02f,-1.20952718e-01f,+1.85475126e-01f,
-3.64942960e-02f,-1.25930771e-01f,-3.78052220e-02f,+2.39425287e-01f,+1.30253017e-01f,
+3.43499631e-01f,-3.74393702e-01f,-1.37746595e-02f,-1.49888575e-01f,+1.31834716e-01f,
-8.38403106e-02f,-6.28659129e-02f,+2.68142466e-02f,-8.15519691e-02f,+1.44767165e-02f,
-2.09543947e-02f,+1.39688760e-01f,+5.01435548e-02f,-1.22355809e-02f,+7.27155386e-03f,
+1.02778478e-02f,-1.70718285e-03f,+2.70813793e-01f,+5.31724580e-02f,+3.66526209e-02f,
+3.03944070e-02f,+1.61755323e-01f,-1.07467517e-01f,-1.43512219e-01f,+4.96557020e-02f,
-1.00632913e-01f,-2.52249867e-01f,-1.56394213e-01f,+9.15866047e-02f,-2.21246719e-01f,
+5.32745831e-02f,+3.73219177e-02f,+5.83238453e-02f,-4.45155986e-02f,-1.03978254e-01f,
-1.13490328e-01f,-3.03897262e-02f,+1.37380715e-02f,+1.82415202e-01f,-2.58102417e-02f,
+1.23413578e-01f,+2.16470346e-01f,+6.12338409e-02f,-2.22942099e-01f,+3.65610540e-01f,
-2.04945311e-01f,+7.33043700e-02f,-1.09885037e-02f,-1.45273373e-01f,-4.15948242e-01f,
-1.43185109e-01f,+8.13428983e-02f,+8.10776353e-02f,-3.99329662e-01f,+3.59117500e-02f,
-3.51894796e-01f,+1.77254938e-02f,-4.54889312e-02f,+1.77618459e-01f,-1.27647728e-01f,
-2.10247666e-01f,-1.66502327e-01f,-1.76250458e-01f,+4.65669632e-02f,-1.44406691e-01f,
+4.57054138e-01f,-1.88213885e-02f,-8.20078850e-02f,+2.52930880e-01f,+8.53013992e-02f,
+5.76469526e-02f,-5.54028749e-02f,+1.43110961e-01f,+2.54976340e-02f,+4.48467210e-02f,
-3.03885955e-02f,-1.85448676e-01f,+1.35939047e-01f,-1.03854939e-01f,+1.19081080e-01f,
-8.18467140e-02f,-8.80722851e-02f,-8.09075907e-02f,+7.45343342e-02f,+2.18134783e-02f,
+9.01814848e-02f,+5.44358185e-03f,+4.17684056e-02f,+2.00577080e-01f,+9.69733894e-02f,
-9.49410945e-02f,-2.56457049e-02f,-7.88960457e-02f,+2.59070043e-02f,-3.14048529e-01f,
+4.66692746e-02f,+9.45919901e-02f,+1.05091501e-02f,-2.56900713e-02f,+2.00025607e-02f,
+1.11372042e-02f,-5.57206459e-02f,+7.54566223e-04f,-8.61957576e-03f,+2.39401877e-01f,
+3.92841958e-02f,+4.36832057e-03f,+1.12073757e-02f,+9.24328119e-02f,+9.92256328e-02f,
-1.69348285e-01f,+1.07914254e-01f,+1.51491195e-01f,-3.77833396e-01f,-1.72073111e-01f,
+7.39501193e-02f,-3.31587307e-02f,-1.12696506e-01f,-2.68603265e-01f,+2.39341319e-01f,
-1.35891750e-01f,-9.83553678e-02f,+8.04344378e-03f,+1.07450970e-01f,-8.29774514e-02f,
-8.49426314e-02f,+5.68569414e-02f,-3.84734757e-02f,+1.70334533e-01f,+3.88194710e-01f,
+2.94841342e-02f,-5.21741323e-02f,+1.20928541e-01f,-1.21725768e-01f,-1.08608969e-01f,
-5.72813489e-02f,+1.18536754e-02f,+5.72083779e-02f,+5.26642762e-02f,-9.37582850e-02f,
+2.04252526e-01f,-1.64032862e-01f,+1.29595965e-01f,-2.13254569e-03f,-2.93970183e-02f,
-3.26815218e-01f,-2.16872469e-01f,+1.15805075e-01f,-1.46298170e-01f,+9.95579511e-02f,
+1.55242637e-01f,+2.16810569e-01f,+1.18965164e-01f,-8.10209289e-02f,-9.00812671e-02f,
-5.33859730e-02f,-1.86186388e-01f,-5.75803928e-02f,+3.15444201e-01f,+5.87316938e-02f,
+1.07950822e-01f,-6.45174738e-03f,-3.98819521e-02f,-4.50148620e-03f,-1.09777255e-02f,
-1.08077861e-01f,+6.72851801e-02f,+1.67023152e-01f,+1.32060677e-01f,+1.50489472e-02f,
+3.79888974e-02f,-2.15174958e-01f,-1.09705754e-01f,-1.11242637e-01f,+7.01885968e-02f,
-6.93085268e-02f,-1.31365910e-01f,-1.66410118e-01f,+5.70481867e-02f,+1.16576612e-01f,
-1.82104611e-03f,-8.25092271e-02f,-3.10321357e-02f,-5.57480343e-02f,+1.47089511e-01f,
-6.59952983e-02f,+2.56367661e-02f,-7.85320476e-02f,+9.47856903e-02f,-3.90312783e-02f,
+1.92860380e-01f,-1.99073423e-02f,+2.72600707e-02f,+6.83320761e-02f,+7.26405606e-02f,
+2.14842670e-02f,-1.18202142e-01f,-2.27278396e-02f,+2.64638029e-02f,-6.90508112e-02f,
-2.23534793e-01f,+2.06905738e-01f,+1.49777800e-01f,-1.34002551e-01f,-1.07705384e-01f,
+2.46391669e-02f,-5.03024226e-03f,+1.10585406e-01f,-1.93188980e-01f,+2.80186892e-01f,
+1.76711362e-02f,+2.43239962e-02f,+1.26678124e-01f,-7.70641938e-02f,-3.43224518e-02f,
+1.00169159e-01f,+8.72930139e-02f,-9.17391479e-02f,-2.15408113e-02f,+2.10874900e-02f,
-4.36597764e-02f,-1.08973131e-01f,+5.54466024e-02f,-1.34664014e-01f,-5.37641235e-02f,
-1.64366305e-01f,-1.59037579e-02f,+7.45274797e-02f,+2.35535681e-01f,+5.34573458e-02f,
-5.08913994e-02f,+1.99946329e-01f,-8.13411102e-02f,+8.33965652e-03f,-4.84094210e-02f,
-4.33039181e-02f,-6.41935505e-03f,+1.09302863e-01f,+8.88248011e-02f,+6.24881387e-02f,
-3.74783613e-02f,+1.38848469e-01f,-8.36099163e-02f,+2.77812704e-02f,-6.71873987e-02f,
+3.57305706e-02f,+3.11257318e-02f,-1.01742812e-01f,+5.82136028e-02f,-1.30772710e-01f,
+6.72071427e-02f,-6.26674816e-02f,-3.39992285e-01f,-2.75857151e-01f,-4.56672877e-01f,
+2.43425719e-03f,+1.22658670e-01f,+1.08196892e-01f,+1.07866876e-01f,-4.76565659e-02f,
-3.62159661e-03f,+4.40543704e-02f,+4.27880138e-02f,+5.59162535e-02f,+9.53831747e-02f,
-3.86573002e-02f,-1.22878730e-01f,-7.53362924e-02f,+6.89558387e-02f,+1.05132489e-03f,
-1.35714740e-01f,-1.68782562e-01f,-8.72318447e-02f,-1.48055315e-01f,-6.94015389e-03f,
-1.70840412e-01f,+1.88987087e-02f,+7.20987990e-02f,+4.11361568e-02f,-3.54254805e-02f,
+9.53669995e-02f,+1.50205359e-01f,-3.78799140e-02f,-1.92247629e-02f,-1.24670282e-01f,
+1.31826714e-01f,-6.94396347e-02f,-8.67769048e-02f,-1.22837037e-01f,+1.10633977e-01f,
+3.28358784e-02f,-1.63091317e-01f,+2.70171501e-02f,-4.67453860e-02f,-6.52941838e-02f,
-4.32302766e-02f,+8.60707089e-02f,+1.98877063e-02f,-3.43910605e-02f,+1.40725181e-01f,
-9.85252410e-02f,+9.20038074e-02f,+8.39874968e-02f,-5.43315820e-02f,+5.88540733e-02f,
+1.09441482e-01f,-1.24268336e-02f,-2.06214935e-01f,-7.64409229e-02f,-6.48333058e-02f,
+7.47487769e-02f,+2.28265356e-02f,-9.00167897e-02f,+2.64946997e-01f,-1.79252356e-01f,
-3.21611054e-02f,+2.99093664e-01f,+3.55551541e-02f,+1.71974719e-01f,+1.08042720e-03f,
+3.24657023e-01f,-2.09209546e-01f,-1.94692209e-01f,+3.13230127e-01f,-1.77566782e-01f,
+1.30559523e-02f,-1.23403713e-01f,-3.47155370e-02f,-7.87747800e-02f,+1.31854475e-01f,
-7.31589422e-02f,-1.74694918e-02f,+6.48510009e-02f,+1.89804118e-02f,-1.17869936e-02f,
+4.95743603e-02f,-2.59564035e-02f,-7.18079507e-02f,+3.97728309e-02f,-1.29717693e-01f,
-8.16387460e-02f,-3.06795925e-01f,+2.21660156e-02f,+2.86121983e-02f,-7.49896392e-02f,
-1.26742378e-01f,-4.84641902e-02f,+2.40739454e-02f,+2.29179755e-01f,+6.12375364e-02f,
-1.93431124e-01f,-7.79355690e-02f,+1.13430060e-01f,-1.51908323e-01f,+3.54987308e-02f,
-2.60829568e-01f,+2.81307548e-02f,-2.70350538e-02f,+5.98261040e-03f,-1.26241043e-01f,
+8.19502547e-02f,-8.86232108e-02f,-6.12472109e-02f,-4.90243882e-02f,+1.02256395e-01f,
-6.87652305e-02f,+2.78046802e-02f,+5.51421568e-02f,+5.77903725e-02f,-1.02009838e-02f,
-9.79574621e-02f,+2.51720995e-01f,+1.52204148e-02f,-1.25038087e-01f,+8.53196755e-02f,
-1.91884995e-01f,-4.54298295e-02f,-1.58243999e-01f,+1.18890341e-04f,+3.32279727e-02f,
-1.57716304e-01f,+1.68636367e-01f,+2.32776746e-01f,+9.95739326e-02f,+2.26266198e-02f,
+1.17431059e-01f,-3.33706709e-03f,-2.63815783e-02f,+1.11304954e-01f,+7.47630671e-02f,
+8.12977105e-02f,-2.45718569e-01f,-1.00332387e-02f,+1.30024448e-01f,-1.75468341e-01f,
+5.99560924e-02f,-6.87770918e-02f,+1.47139102e-01f,+1.92270800e-01f,-6.56030029e-02f,
+2.09896397e-02f,-3.92002389e-02f,+5.76554060e-01f,-1.31821642e-02f,-2.95942277e-01f,
-3.87066305e-02f,-1.04690716e-01f,+6.25721812e-02f,-2.71795876e-02f,-2.22255796e-01f,
+1.05255030e-01f,+5.41801285e-03f,+2.10168343e-02f,-1.03361003e-01f,-9.23477784e-02f,
-1.76115287e-03f,+6.28633723e-02f,+3.89471501e-02f,+2.40356058e-01f,-1.97399318e-01f,
-2.50844687e-01f,-1.97533369e-02f,+5.75935617e-02f,-3.58186178e-02f,+4.54989374e-02f,
-9.58050564e-02f,+2.91148368e-02f,-1.22867212e-01f,+1.97497725e-01f,+6.91204797e-04f,
+3.69957387e-02f,+1.87135916e-02f,-6.57301322e-02f,+1.49090681e-02f,+2.69576069e-02f,
+6.83580935e-02f,+4.04024720e-02f,+4.37443405e-02f,-5.98119646e-02f,+2.81468183e-01f,
-7.21814632e-02f,-9.59039107e-02f,+1.11523420e-01f,+8.74961019e-02f,+9.55389142e-02f,
-6.18297197e-02f,-7.91637897e-02f,-2.92644799e-02f,-1.93518307e-03f,+6.67379126e-02f,
+5.47008403e-02f,-2.39143744e-02f,-3.19758318e-02f,+7.52669349e-02f,-6.81216642e-02f,
-1.80037811e-01f,-1.13175616e-01f,-1.71432123e-01f,-2.30725575e-02f,+1.34816736e-01f,
-1.59649849e-01f,-2.20963761e-01f,+2.01015040e-01f,+3.56509425e-02f,+2.91063171e-02f,
+1.50870606e-01f,+2.08948568e-01f,-1.47253141e-01f,+3.40790033e-01f,-1.16622215e-02f,
-1.24228954e-01f,-1.86640769e-02f,-8.56275633e-02f,+4.39592265e-02f,-1.65700503e-02f,
-3.57565843e-02f,+1.36745125e-01f,-1.33305509e-03f,+9.48000923e-02f,+4.65765968e-02f,
+2.99320240e-02f,+5.84256910e-02f,-2.43620366e-01f,+6.41797110e-02f,-1.59796685e-01f,
-6.54753968e-02f,+8.33370835e-02f,-1.38017014e-01f,-1.02335820e-02f,-8.87370780e-02f,
+1.98064089e-01f,-2.65339017e-01f,-5.56129664e-02f,-1.23994842e-01f,-5.56802237e-03f,
+7.87878633e-02f,-1.06286161e-01f,+9.57978070e-02f,+9.40558389e-02f,+5.13791107e-02f,
+1.64585130e-03f,+8.71388614e-03f,-1.25711858e-02f,-8.24022368e-02f,-3.71475890e-02f,
-2.21494474e-02f,+2.15652376e-01f,+1.21875927e-01f,-2.03977585e-01f,+7.84715489e-02f,
-5.69145242e-03f,+1.55562153e-02f,+9.25197303e-02f,+2.63619930e-01f,+9.62809473e-02f,
-8.30694288e-02f,+1.38518184e-01f,+1.21364132e-01f,+2.40994599e-02f,-1.39533147e-01f,
-1.67067237e-02f,+3.22329402e-02f,-1.03179239e-01f,-1.89529389e-01f,-1.86666101e-01f,
-6.00669608e-02f,+6.04574345e-02f,-5.89298196e-02f,-4.20494750e-02f,-1.07117027e-01f,
+7.79778287e-02f,-1.89537913e-01f,+2.02894192e-02f,+7.26947188e-03f,+3.74800228e-02f,
+1.30428433e-01f,+1.57794598e-02f,+1.50311545e-01f,+3.50442082e-02f,-1.88041180e-01f,
+2.89829597e-02f,-5.65553568e-02f,+3.44190300e-02f,-9.67330411e-02f,-5.49777225e-02f,
+2.51286756e-02f,+2.15080995e-02f,-7.35214651e-02f,+6.62418008e-02f,+1.11479931e-01f,
-6.08411878e-02f,-1.04384519e-01f,-6.92515224e-02f,+2.76535321e-02f,+6.09760508e-02f,
+7.38422992e-03f,-1.39016926e-01f,-6.63781390e-02f,+2.97689110e-01f,+8.49965289e-02f,
+4.46855277e-02f,+1.93312660e-01f,+1.17832437e-01f,+4.77966480e-02f,+1.54361233e-01f,
-1.90429613e-02f,-8.79718084e-03f,-5.87043166e-02f,-2.84065679e-02f,-8.75823349e-02f,
-1.46000743e-01f,-2.34480184e-02f,+2.42182657e-01f,+1.74416348e-01f,-5.15089110e-02f,
+3.23917344e-02f,+1.06348090e-01f,-2.04830334e-01f,-1.28559232e-01f,+1.02501772e-01f,
-2.42201909e-02f,-2.35964078e-02f,+4.05797176e-02f,+2.62791794e-02f,-7.89618641e-02f,
-3.08141142e-01f,+7.84521699e-02f,+2.14065969e-01f,+1.22965455e-01f,-2.06870493e-02f,
-6.26337901e-02f,+1.15479060e-01f,+4.20002267e-04f,+2.70420630e-02f,+2.36059785e-01f,
+1.68596581e-01f,-2.98730880e-02f,-1.10613361e-01f,-8.98811743e-02f,-1.08333960e-01f,
+3.61361206e-02f,+3.26155610e-02f,+9.52901617e-02f,+6.76388964e-02f,-1.74337123e-02f,
+1.35529146e-01f,-4.96966355e-02f,-1.98450424e-02f,-1.50818927e-02f,-3.78481179e-01f,
-3.39192525e-03f,-1.37112960e-01f,-1.88125983e-01f,-1.10759228e-01f,-1.36328697e-01f,
-1.33609697e-01f,+3.17302644e-02f,-1.35565391e-02f,-9.04275328e-02f,+2.77042352e-02f,
-3.43612805e-02f,+1.36257276e-01f,+8.96083098e-03f,+4.78862673e-02f,+1.39804825e-01f,
-3.05371080e-02f,-1.84853692e-02f,+2.72454232e-01f,+6.20214865e-02f,-1.08852409e-01f,
+9.50646028e-02f,+1.83091536e-01f,+2.88444455e-04f,+9.56772193e-02f,-1.19722046e-01f,
-1.94926951e-02f,+7.72832558e-02f,-7.58355260e-02f,-8.42172280e-02f,+1.21112466e-01f,
+2.58712564e-02f,+7.89055750e-02f,-1.22101568e-01f,-3.89059246e-01f,+1.09453365e-01f,
-1.01048417e-01f,-1.16285821e-02f,-2.38580685e-02f,-1.18145049e-01f,-5.14871404e-02f,
+3.99408452e-02f,+9.09022391e-02f,-2.43949071e-01f,+1.31976500e-01f,+2.51776129e-01f,
+8.65387917e-02f,-6.03853501e-02f,+3.07522267e-01f,+3.43352884e-01f,-2.91088726e-02f,
+7.30032921e-02f,+2.03472208e-02f,+1.47205815e-01f,-1.94426298e-01f,-7.24132732e-02f,
+1.12350158e-01f,-2.30793539e-03f,-2.44210556e-01f,+1.38345867e-01f,-7.25272298e-02f,
+2.38044888e-01f,+5.59173226e-02f,-2.11089365e-02f,+1.47458017e-01f,-3.04663857e-03f,
-5.03871851e-02f,-1.84003115e-01f,-2.86368523e-02f,+9.35226753e-02f,+8.55464786e-02f,
+1.80006679e-02f,+6.60241023e-02f,-1.79951917e-02f,-1.42945811e-01f,+4.78159115e-02f,
-5.35632484e-02f,+7.01930821e-02f,+2.88110115e-02f,+2.06978824e-02f,+3.59495431e-02f,
+1.04012592e-02f,+1.05221130e-01f,+8.44455212e-02f,-5.32761402e-03f,-1.53695447e-02f,
+5.70583753e-02f,+5.34307882e-02f,+1.47205397e-01f,+1.37804523e-01f,+1.35938421e-01f,
-1.20557941e-01f,+1.79353610e-01f,-1.03111565e-01f,-3.17883305e-02f,+9.99427065e-02f,
-1.06420346e-01f,+8.65598619e-02f,-1.69028297e-01f,-3.12530212e-02f,-2.89424658e-01f,
-6.93088025e-02f,+3.00252065e-02f,-2.24217474e-01f,-2.83266306e-01f,-1.61414668e-01f,
-1.28747791e-01f,-7.74763152e-02f,+9.39140320e-02f,-2.40665689e-01f,+7.85695240e-02f,
-7.38032954e-03f,+3.31727087e-01f,+7.94589221e-02f,+3.18946615e-02f,-3.69815305e-02f,
-3.47345434e-02f,-5.62978871e-02f,+9.12601873e-02f,-5.25970571e-02f,-6.40907586e-02f,
-6.00246117e-02f,-5.19764274e-02f,-1.71151329e-02f,-4.79746945e-02f,-5.39001152e-02f,
+8.18412527e-02f,-8.29757825e-02f,+3.56438309e-02f,-2.01592430e-01f,+6.78215027e-02f,
-6.06766082e-02f,+2.86391284e-02f,+1.37060713e-02f,-5.13998568e-02f,-1.11237438e-02f,
-5.49647957e-02f,-3.09319538e-03f,-1.96023166e-01f,+1.15987915e-03f,+3.66045535e-02f,
-1.03561223e-01f,+6.57211319e-02f,-7.08163828e-02f,-2.80032232e-02f,+6.85887039e-02f,
-5.99133298e-02f,-1.63579017e-01f,-4.11496878e-01f,+1.99075919e-02f,-1.50177389e-01f,
+1.07813321e-01f,+2.24855587e-01f,-2.59287089e-01f,+3.65629271e-02f,+3.36543292e-01f,
-2.29172140e-01f,-3.54983181e-01f,+1.42566279e-01f,-3.01079527e-02f,+2.82177776e-02f,
-1.65373802e-01f,-6.81267306e-02f,-1.97685093e-01f,+2.76074171e-01f,-1.40563175e-01f,
-1.10424291e-02f,+3.86165641e-03f,-6.25722259e-02f,-4.91155759e-02f,-4.62071970e-02f,
-7.21968189e-02f,-5.07647693e-02f,-4.68644351e-02f,-1.41939551e-01f,+3.08363941e-02f,
-7.46296644e-02f,+9.61112380e-02f,-9.51132700e-02f,+1.21712953e-01f,+1.52730182e-01f,
-5.95299713e-02f,-9.71320942e-02f,+8.71918499e-02f,+2.71298643e-03f,-8.96879807e-02f,
-1.52915359e-01f,-3.60914953e-02f,-3.00793856e-01f,-5.01713157e-02f,-3.92588601e-02f,
-6.80069774e-02f,+9.12447348e-02f,+7.80585483e-02f,-4.48805746e-03f,+3.01476177e-02f,
+3.49173583e-02f,-5.49094453e-02f,-1.46765560e-01f,-1.16651967e-01f,-1.01338334e-01f,
-1.75018050e-02f,-1.37119234e-01f,-3.60993221e-02f,-8.82037878e-02f,-3.20537329e-01f,
+5.35169728e-02f,+1.05479352e-01f,+9.65294689e-02f,+6.32873625e-02f,+2.61676580e-01f,
+3.07591911e-02f,-2.56768793e-01f,-8.84464607e-02f,-2.05119476e-01f,+2.51950562e-01f,
-1.39739841e-01f,-3.42778638e-02f,-1.57058418e-01f,+5.93568645e-02f,-1.09565422e-01f,
-1.25145406e-01f,+7.70484656e-02f,+1.02372073e-01f,-2.31927931e-01f,-2.73414105e-01f,
-9.61638168e-02f,+1.72379285e-01f,+4.29312922e-02f,-4.45506565e-04f,-7.30133131e-02f,
+1.01713993e-01f,-1.66617289e-01f,+4.07055467e-02f,+1.85071945e-01f,-1.26853794e-01f,
-3.62053737e-02f,+1.55645953e-02f,-6.09381720e-02f,+2.52022650e-02f,-3.95588204e-02f,
+9.00234953e-02f,+5.16726226e-02f,+6.42060265e-02f,-2.05583498e-02f,+1.28036728e-02f,
+5.30101806e-02f,+1.49746686e-01f,-3.64738218e-02f,+1.20492354e-01f,-4.36634980e-02f,
-7.78839588e-02f,+1.32615373e-01f,+2.16642275e-01f,+3.67348194e-02f,-7.61956796e-02f,
-3.05706132e-02f,-2.35507548e-01f,+2.03505978e-02f,-2.29317229e-02f,-3.19003724e-02f,
+5.71680181e-02f,+3.64080258e-02f,+1.00897867e-02f,+1.78650022e-01f,+9.88991410e-02f,
-2.12339256e-02f,+2.15716977e-02f,-8.63920227e-02f,+1.88745007e-01f,+1.95700526e-02f,
+6.45340756e-02f,+2.23818839e-01f,+1.83762059e-01f,+9.70982388e-02f,+3.98142682e-03f,
-1.40910782e-02f,-8.11863020e-02f,-3.34858745e-02f,+6.73875287e-02f,-2.14738660e-02f,
-9.71035436e-02f,-9.98283103e-02f,+1.32823795e-01f,-9.27641392e-02f,-2.57476509e-01f,
-9.87833738e-02f,-1.92557406e-02f,-1.06230639e-01f,-4.57379501e-03f,-2.37827197e-01f,
-6.40848726e-02f,-3.21032889e-02f,-1.16337202e-01f,+2.76533086e-02f,-6.83023781e-02f,
-1.41833484e-01f,+6.44931123e-02f,+5.09129651e-02f,+7.42766401e-03f,-1.92790031e-01f,
-2.26243347e-01f,-1.21171370e-01f,+3.83802615e-02f,+1.19043253e-01f,-1.07847065e-01f,
-2.34072432e-01f,+7.27034956e-02f,-1.45839766e-01f,-2.14564353e-02f,+5.89740016e-02f,
+4.43243496e-02f,+4.24031392e-02f,-2.04656214e-01f,-1.13118187e-01f,+3.77374440e-02f,
-7.07485750e-02f,+1.07318200e-01f,-1.90443322e-01f,-1.23405814e-01f,+3.96048017e-02f,
-1.04626015e-01f,-9.14042592e-02f,-1.42618015e-01f,+1.09313384e-01f,+5.98589517e-02f,
+1.70215055e-01f,+2.13122126e-04f,+8.39482024e-02f,+5.56961708e-02f,-2.11897224e-01f,
-1.00189731e-01f,-3.24843042e-02f,+3.90680172e-02f,-9.54606235e-02f,+3.96896005e-02f,
+1.99139729e-01f,+1.05513148e-01f,+3.96394469e-02f,+1.39685139e-01f,+2.30948720e-02f,
-7.43307173e-02f,-4.42642570e-02f,-2.51074582e-02f,-5.28328195e-02f,+2.47319162e-01f,
+9.61465836e-02f,-1.34051248e-01f,+1.44367248e-01f,+9.89695117e-02f,-1.50367618e-01f,
-8.50018859e-02f,+4.17625122e-02f,+1.69902712e-01f,-1.14897646e-01f,-1.11040950e-01f,
+1.13812434e-02f,+1.71496734e-01f,+4.53196242e-02f,+5.09763844e-02f,-6.91385493e-02f,
+2.10366189e-01f,-7.13012516e-02f,+8.76289606e-02f,+1.07286088e-02f,-3.73254456e-02f,
-1.40584663e-01f,-3.60049844e-01f,-2.14553669e-01f,+6.23056889e-02f,+2.22254973e-02f,
-1.99961990e-01f,-1.13812357e-01f,-8.46281126e-02f,-3.29845436e-02f,-1.04772868e-02f,
-7.26396367e-02f,+8.05014465e-03f,-6.26811981e-02f,-1.59865338e-02f,-3.28087918e-02f,
-5.84077835e-02f,-3.19498517e-02f,-1.49641082e-01f,+2.13859022e-01f,-6.21352382e-02f,
+1.71944546e-03f,+1.48854226e-01f,+8.96139815e-02f,-7.99052119e-02f,+4.25237343e-02f,
-7.62127265e-02f,-2.81596538e-02f,+6.42684251e-02f,-8.35094228e-02f,-1.50522953e-02f,
+1.84182808e-01f,+4.49084193e-02f,-3.05507481e-02f,-1.39175937e-01f,+6.29335269e-03f,
+1.24414675e-02f,-1.03606358e-01f,-1.65994883e-01f,-6.86129704e-02f,+1.56399786e-01f,
+4.99827638e-02f,+8.51452202e-02f,+7.85111561e-02f,+1.07301265e-01f,-4.28815894e-02f,
+1.60813808e-01f,-2.18420148e-01f,+4.97027189e-01f,-5.95044941e-02f,+2.50654016e-03f,
-9.65651050e-02f,+2.17462759e-02f,+2.53728777e-01f,-4.50363979e-02f,}; 
k2c_tensor conv2d_1_kernel = {&conv2d_1_kernel_array[0],4,2304,{ 3, 3,16,16, 1}}; 
float conv2d_1_bias_array[16] = {
-2.98530404e-02f,+1.49602629e-02f,-8.67978204e-03f,-9.68553964e-03f,+1.36965215e-01f,
-5.98682314e-02f,-4.00138162e-02f,+6.81969598e-02f,-3.70253548e-02f,+1.41470218e-02f,
+5.22614457e-04f,+2.51399949e-02f,-1.27237411e-02f,+2.90919933e-02f,+6.01430349e-02f,
+1.03444578e-02f,}; 
k2c_tensor conv2d_1_bias = {&conv2d_1_bias_array[0],1,16,{16, 1, 1, 1, 1}}; 

 
float batch_normalization_1_output_array[16384] = {0}; 
k2c_tensor batch_normalization_1_output = {&batch_normalization_1_output_array[0],3,16384,{32,32,16, 1, 1}}; 
size_t batch_normalization_1_axis = 2; 
float batch_normalization_1_mean_array[16] = {
-1.95673251e+00f,+1.07053232e+00f,-1.14967775e+00f,-7.00537324e-01f,-1.93243289e+00f,
-2.26304471e-01f,+2.36191317e-01f,-2.52154395e-02f,-1.45158827e+00f,+4.40096557e-02f,
+2.41519618e+00f,+5.10542750e-01f,-3.77755612e-01f,+7.11331815e-02f,+3.75825800e-02f,
-6.24204338e-01f,}; 
k2c_tensor batch_normalization_1_mean = {&batch_normalization_1_mean_array[0],1,16,{16, 1, 1, 1, 1}}; 
float batch_normalization_1_stdev_array[16] = {
+6.47845685e-01f,+8.13299656e-01f,+6.15262508e-01f,+8.22042942e-01f,+6.19348824e-01f,
+5.89615524e-01f,+6.86933637e-01f,+8.25183332e-01f,+7.16074705e-01f,+7.84250677e-01f,
+4.94581312e-01f,+5.70924222e-01f,+8.89396012e-01f,+8.46772730e-01f,+6.46586418e-01f,
+8.41336787e-01f,}; 
k2c_tensor batch_normalization_1_stdev = {&batch_normalization_1_stdev_array[0],1,16,{16, 1, 1, 1, 1}}; 
float batch_normalization_1_gamma_array[16] = {
+1.02786446e+00f,+8.01197469e-01f,+7.49884784e-01f,+1.11261129e+00f,+9.95958865e-01f,
+1.01468658e+00f,+1.12608171e+00f,+1.12073421e+00f,+8.74208987e-01f,+1.14012861e+00f,
+8.15912068e-01f,+1.10508490e+00f,+1.26792347e+00f,+9.92142558e-01f,+8.58347297e-01f,
+1.14034951e+00f,}; 
k2c_tensor batch_normalization_1_gamma = {&batch_normalization_1_gamma_array[0],1,16,{16, 1, 1, 1, 1}}; 
float batch_normalization_1_beta_array[16] = {
+6.64378047e-01f,-5.03261052e-02f,+1.27584350e+00f,+3.78711283e-01f,+3.78248036e-01f,
+2.15821207e-01f,-2.47782901e-01f,+2.88043112e-01f,+4.77845110e-02f,+5.61388172e-02f,
-5.73262215e-01f,-1.92854807e-01f,-7.07455575e-02f,+1.85274720e-01f,+1.45186365e-01f,
+2.87406921e-01f,}; 
k2c_tensor batch_normalization_1_beta = {&batch_normalization_1_beta_array[0],1,16,{16, 1, 1, 1, 1}}; 


size_t conv2d_2_stride[2] = {1,1}; 
size_t conv2d_2_dilation[2] = {1,1}; 
float conv2d_2_output_array[16384] = {0}; 
k2c_tensor conv2d_2_output = {&conv2d_2_output_array[0],3,16384,{32,32,16, 1, 1}}; 
float conv2d_2_padded_input_array[18496] = {0}; 
k2c_tensor conv2d_2_padded_input = {&conv2d_2_padded_input_array[0],3,18496,{34,34,16, 1, 1}}; 
size_t conv2d_2_pad[4] = {1,1,1,1}; 
float conv2d_2_fill = 0.0f; 
float conv2d_2_kernel_array[2304] = {
-1.79443955e-01f,+3.05818506e-02f,-2.87752301e-01f,-1.31971076e-01f,+3.55094001e-02f,
+1.26774549e-01f,-1.29080415e-01f,-2.65083127e-02f,-3.50746587e-02f,+1.20312124e-01f,
-4.57965471e-02f,+1.69440508e-01f,+2.24085763e-01f,-9.99174416e-02f,+1.20005846e-01f,
-1.63246002e-02f,+1.37346655e-01f,+1.30753562e-01f,-6.67894855e-02f,+5.22386283e-02f,
+8.11911151e-02f,+1.57906607e-01f,+7.95301497e-02f,-9.41661447e-02f,+4.85038720e-02f,
+1.81958210e-02f,-2.07600772e-01f,+6.85077086e-02f,+1.57610148e-01f,+6.75328374e-02f,
-1.37314564e-02f,+4.84098457e-02f,-9.05937329e-02f,-6.14766963e-02f,-1.93377167e-01f,
-1.70501485e-01f,+1.35393053e-01f,-1.44098490e-01f,-5.56681864e-02f,-1.50010630e-01f,
+1.91685691e-01f,+3.81710455e-02f,+9.85345617e-02f,-1.23547046e-02f,+4.45652828e-02f,
+5.36272973e-02f,+1.20524511e-01f,+2.01368913e-01f,+2.14890763e-02f,-5.90067245e-02f,
+1.10008463e-01f,+8.97300169e-02f,-2.27533318e-02f,+1.47386000e-01f,-1.99831687e-02f,
-8.47056210e-02f,-4.54818085e-02f,-5.23845525e-03f,+1.38410553e-01f,+8.58435500e-03f,
-1.93190612e-02f,-2.73618579e-01f,+8.31037108e-03f,+5.59279248e-02f,-2.15302065e-01f,
-1.17976844e-01f,-1.34440824e-01f,-7.77716488e-02f,-1.36723295e-01f,-8.86872262e-02f,
+1.14486709e-01f,-1.99424718e-02f,+3.20448689e-02f,+6.33100942e-02f,+5.81693538e-02f,
-2.67691631e-02f,-1.16545871e-01f,+1.07415803e-02f,-6.59773275e-02f,-3.54592712e-03f,
+5.05181924e-02f,-7.04305619e-02f,-6.76051155e-02f,+1.37747690e-01f,-7.08770901e-02f,
+1.06408611e-01f,+4.88912947e-02f,-1.09558173e-01f,+2.36590505e-02f,-5.43655902e-02f,
-1.49912626e-01f,-1.24546930e-01f,+3.11644468e-02f,-1.14042155e-01f,-1.68318093e-01f,
+6.85768500e-02f,+1.82681188e-01f,-1.94682106e-01f,+3.58892344e-02f,-1.03535183e-01f,
+1.90385044e-01f,-2.21616507e-01f,-1.63354471e-01f,+1.60514209e-02f,+1.74827784e-01f,
+3.87499742e-02f,-6.51202202e-02f,-5.65634668e-02f,+1.26244038e-01f,-1.17300220e-01f,
+2.63368580e-02f,-1.30018696e-01f,+4.78303209e-02f,+4.50656600e-02f,+1.27009481e-01f,
-9.38131288e-02f,-4.43204716e-02f,+5.04510105e-02f,-5.86843900e-02f,-5.64077236e-02f,
+5.48721515e-02f,-1.01321749e-01f,+1.71867639e-01f,+3.71798081e-03f,+3.57449576e-02f,
-1.91767260e-01f,+2.50658572e-01f,+1.53684586e-01f,-1.33472219e-01f,-2.53652688e-02f,
+1.02643296e-03f,-1.45267621e-01f,-8.08851123e-02f,+3.15740965e-02f,+9.75494906e-02f,
+6.06326871e-02f,-2.92204414e-03f,+1.18606508e-01f,-1.29522994e-01f,+7.86116049e-02f,
+2.14077771e-01f,+6.85649142e-02f,+2.70156622e-01f,+1.62231937e-01f,+9.56616849e-02f,
+1.64566457e-01f,-2.71081342e-03f,+1.61970764e-01f,-9.83306020e-03f,+7.40484074e-02f,
-2.01265484e-01f,+7.99988359e-02f,-5.19443229e-02f,-6.68554306e-02f,-6.35720417e-02f,
+2.80787945e-02f,-5.35325781e-02f,-4.32551317e-02f,+3.20722349e-02f,+1.17847435e-01f,
+6.23170994e-02f,+1.26539380e-03f,+6.09284304e-02f,-1.33724079e-01f,-7.03085139e-02f,
+1.00476839e-01f,-6.13084994e-02f,+8.06023777e-02f,-3.24405283e-02f,+2.11495422e-02f,
+8.66139084e-02f,+7.57102743e-02f,-1.18889175e-01f,+3.58435772e-02f,-1.35462299e-01f,
-8.72555673e-02f,-9.37722027e-02f,+2.10056975e-02f,+8.12727511e-02f,-2.15649996e-02f,
-3.81711870e-03f,+9.70629156e-02f,-5.97613072e-03f,+1.64836049e-01f,+1.42960161e-01f,
+4.01067957e-02f,-2.60736823e-01f,+1.47887111e-01f,-4.53852536e-03f,+1.53252147e-02f,
-2.15157643e-02f,+4.59749438e-02f,+5.62971905e-02f,-1.34759039e-01f,-6.08317927e-02f,
+5.34308609e-03f,-4.40967567e-02f,+9.27359983e-02f,-1.88568085e-01f,-5.02732880e-02f,
+1.24356598e-01f,-1.51099160e-01f,-4.00111005e-02f,+3.93100753e-02f,-1.96498074e-02f,
+1.54297382e-01f,-1.58991784e-01f,-5.47539853e-02f,+4.23467942e-02f,+7.33837485e-02f,
+7.40467981e-02f,-1.04704658e-02f,+1.17076589e-02f,-5.89159988e-02f,+7.28598014e-02f,
+1.26459420e-01f,-1.53472841e-01f,-1.21219948e-01f,-2.07049087e-01f,-2.20848262e-01f,
-1.30788788e-01f,+1.95760280e-01f,+1.00211382e-01f,-1.41688973e-01f,-4.16233242e-02f,
+1.55489206e-01f,-6.79992437e-02f,+2.17495090e-03f,+6.86500072e-02f,+1.28112240e-02f,
-6.16505034e-02f,+2.68803798e-02f,-3.79090644e-02f,+3.60039137e-02f,-1.16514683e-01f,
-1.10742196e-01f,-2.18302757e-01f,-1.05402231e-01f,+1.12595402e-01f,-4.97003868e-02f,
-1.48713723e-01f,-1.50841594e-01f,-4.17125821e-02f,-1.02707297e-01f,-1.14359602e-01f,
+8.15898459e-03f,+1.38607651e-01f,+8.08781460e-02f,+3.04567423e-02f,+1.40571622e-02f,
-1.20849930e-01f,-8.35217312e-02f,+1.30807325e-01f,+2.13558778e-01f,-7.36696944e-02f,
-6.60482943e-02f,-1.00780100e-01f,+1.36748344e-01f,-1.72397271e-01f,+5.86755872e-02f,
-1.70734798e-04f,+1.37511939e-01f,-1.30237341e-01f,+1.52338645e-03f,+5.60914241e-02f,
+1.24190107e-01f,-8.86893347e-02f,+1.73379794e-01f,+1.32939517e-01f,+2.77787387e-01f,
+1.26724094e-01f,+3.19300219e-02f,+1.96319982e-01f,-5.03370427e-02f,+7.43968338e-02f,
+6.11904301e-02f,-6.36281073e-02f,+8.69049951e-02f,+3.09090376e-01f,+8.21258277e-02f,
-3.45245562e-02f,-2.49511916e-02f,-1.33448215e-02f,+3.93848196e-02f,+6.23518266e-02f,
+2.90636183e-03f,+3.13256606e-02f,+1.86611749e-02f,+1.95477501e-01f,-6.20810017e-02f,
+1.47344127e-01f,-6.30619302e-02f,-1.70881256e-01f,-1.08841881e-02f,+2.19382737e-02f,
+1.12836123e-01f,+1.16063409e-01f,+1.17998332e-01f,+1.50888249e-01f,+1.99942421e-02f,
-2.26959977e-02f,+4.75662015e-02f,-1.19179361e-01f,+2.34276652e-02f,-6.36626109e-02f,
+1.28855646e-01f,+2.56554168e-02f,+9.76604894e-02f,+6.94090128e-02f,+3.23222548e-01f,
+4.19025384e-02f,-3.13120633e-02f,-1.59556553e-01f,-1.19315945e-01f,+2.10390508e-01f,
-1.79864243e-02f,+2.59161126e-02f,+6.69995695e-02f,+5.73866963e-02f,+1.77487373e-01f,
+7.06192330e-02f,+1.57220244e-01f,+7.38218129e-02f,-5.96013777e-02f,-1.78097934e-02f,
-2.69524097e-01f,+2.44507403e-03f,+3.90674248e-02f,-1.50427595e-01f,+1.00417800e-01f,
+2.06818312e-01f,+1.96437776e-01f,-1.50566652e-01f,+2.31177449e-01f,+1.59123391e-01f,
-3.19737330e-04f,-2.44178120e-02f,+7.82709569e-02f,+2.84091793e-02f,+1.41858891e-01f,
-2.23368611e-02f,+2.63453096e-01f,-3.06260400e-02f,-4.92852926e-02f,+1.19468821e-02f,
+8.02646577e-03f,-6.94693252e-02f,-6.28393888e-02f,-5.46856560e-02f,+2.95698307e-02f,
+1.22449929e-02f,-4.80042771e-02f,+1.27952397e-01f,-1.39951542e-01f,-8.20049644e-02f,
+6.09714426e-02f,-1.26384599e-02f,-2.02798635e-01f,-3.73961106e-02f,-8.21471885e-02f,
+2.09419355e-01f,+2.03310344e-02f,+1.68523788e-01f,-6.58604577e-02f,+2.25718156e-01f,
-6.18409626e-02f,-2.10940272e-01f,+6.73667062e-03f,+2.07655132e-01f,-1.05884299e-01f,
-2.95566618e-01f,+6.63728267e-02f,+3.53589766e-02f,-9.41045303e-03f,-6.79560974e-02f,
-1.76813707e-01f,-6.44547050e-04f,-1.79332897e-01f,-2.01212633e-02f,-1.05419969e-02f,
+1.08394310e-01f,-9.85520706e-02f,-8.71441960e-02f,+4.43051681e-02f,-1.58631593e-01f,
+4.77080001e-04f,-2.47216057e-02f,+3.76782529e-02f,+1.96395114e-01f,-1.34685943e-02f,
+9.27196518e-02f,+8.66942480e-02f,+4.42492776e-02f,+1.57292724e-01f,-5.01263812e-02f,
+4.06457260e-02f,+2.37904489e-01f,+8.28736052e-02f,+2.09393531e-01f,+1.41862378e-01f,
-1.61493812e-02f,+1.70392245e-02f,+1.07451510e-02f,+1.06288254e-01f,-1.52416080e-02f,
+7.91954175e-02f,-1.36181697e-01f,-7.07219075e-03f,+2.77322028e-02f,-1.43608712e-02f,
+8.64979345e-03f,+3.97232361e-02f,-3.14064920e-02f,-8.94925967e-02f,+2.58367121e-01f,
+1.99628428e-01f,+9.45943892e-02f,-4.47747903e-03f,+1.32344082e-01f,-8.24008211e-02f,
-2.05148712e-01f,+8.38053878e-03f,+7.13030472e-02f,-3.96467447e-02f,-5.57769788e-03f,
+3.14455805e-03f,-6.05112757e-04f,-2.06855442e-02f,-1.22351281e-01f,-2.91635748e-04f,
+2.08057873e-02f,-2.60883093e-01f,+1.48204476e-01f,+5.39356004e-03f,+9.73596871e-02f,
+1.49699271e-01f,+5.19299880e-02f,+1.07797518e-01f,+7.23831579e-02f,+3.52339074e-02f,
+2.16853291e-01f,+2.53643654e-02f,-1.93703726e-01f,+2.26256084e-02f,-6.46938831e-02f,
+6.62836805e-02f,-9.07563940e-02f,+6.90137735e-04f,+1.09853089e-01f,-7.58359432e-02f,
+3.51503789e-02f,-1.85386036e-02f,+7.77296198e-04f,+2.16533557e-01f,-4.95803915e-02f,
+5.49936071e-02f,-5.51651651e-03f,-1.66447520e-01f,-4.22850661e-02f,-1.16728693e-01f,
-1.24172255e-01f,-1.12226866e-02f,-9.44797173e-02f,+7.86305778e-03f,+5.86464331e-02f,
-4.53410335e-02f,-4.06656526e-02f,+1.63971171e-01f,+6.98930696e-02f,+8.81519020e-02f,
-7.63860866e-02f,+2.80126899e-01f,-6.41213134e-02f,-1.60183832e-01f,-1.74948394e-01f,
+3.68694998e-02f,+4.72941697e-02f,+7.91684911e-02f,+5.58179244e-02f,+3.74640003e-02f,
+6.42663240e-02f,+1.68456640e-02f,-6.38192147e-02f,+9.11379699e-03f,+7.46388063e-02f,
+3.13197166e-01f,+4.04104106e-02f,+2.04319924e-01f,+4.63062413e-02f,-2.13189453e-01f,
+4.47060056e-02f,-3.09781991e-02f,-9.90269110e-02f,-1.19778149e-01f,+2.36957837e-02f,
-8.94354880e-02f,-5.43321893e-02f,-2.49430045e-01f,+1.18387893e-01f,+1.85710266e-02f,
-1.68281525e-01f,+6.70585036e-02f,+2.29908034e-01f,-1.82697456e-02f,+1.56672869e-03f,
+6.98055625e-02f,-6.13575764e-02f,-2.11526789e-02f,+1.42668113e-01f,+1.90111697e-01f,
+1.59793884e-01f,-1.79013610e-02f,-2.00588793e-01f,-9.10736918e-02f,-1.36879906e-02f,
+1.49513851e-03f,+7.18247220e-02f,+1.11979589e-01f,-2.19696146e-02f,-4.18829639e-03f,
+1.10384621e-01f,+6.88512549e-02f,-8.63361508e-02f,+4.34859842e-03f,+1.34482786e-01f,
-9.07924920e-02f,-2.34333441e-01f,+1.88616075e-04f,+2.64851868e-01f,-4.16992940e-02f,
+4.90159802e-02f,-1.95368789e-02f,+4.37186565e-03f,-7.93820024e-02f,+1.76330164e-01f,
+3.74063216e-02f,-5.05412109e-02f,-3.22483219e-02f,-1.75064392e-02f,-2.32315436e-02f,
+2.11483072e-02f,-7.80395940e-02f,+1.45778775e-01f,-1.01759508e-01f,+1.88578054e-01f,
+8.81837979e-02f,+1.57990843e-01f,+2.27031291e-01f,+9.99874771e-02f,+3.51839177e-02f,
+4.07257080e-02f,-2.69454089e-03f,-3.07561606e-02f,-4.55497690e-02f,-2.17126474e-01f,
-4.83450778e-02f,-1.05447434e-01f,-1.90153152e-01f,-4.12543043e-02f,-1.49965495e-01f,
+2.30378769e-02f,-1.05605699e-01f,-6.02765456e-02f,-1.64705351e-01f,-1.12235742e-02f,
+2.26378649e-01f,+7.82769267e-03f,-3.76097150e-02f,-1.33757651e-01f,-2.39015687e-02f,
+8.92080665e-02f,+2.47398354e-02f,+5.89341223e-02f,+3.94728482e-02f,-3.74396704e-02f,
+5.03666848e-02f,+1.97635427e-01f,-2.11454377e-01f,+3.94231826e-03f,-1.57661946e-03f,
-5.46950772e-02f,-1.82590649e-01f,+9.75638181e-02f,-5.99556826e-02f,+1.04575187e-01f,
-7.06386417e-02f,+2.44137228e-01f,+6.62362948e-02f,-6.72334060e-02f,-9.10980776e-02f,
+2.39407659e-01f,-2.01825231e-01f,-2.83731315e-02f,+7.37579688e-02f,-1.82662383e-01f,
+1.36302009e-01f,+4.27357703e-02f,-1.16903931e-01f,+2.21140385e-02f,-2.25626212e-02f,
+1.25847712e-01f,+2.31343266e-02f,-8.15521553e-02f,-2.11102162e-02f,-1.20206669e-01f,
-6.16950393e-02f,+3.53780165e-02f,-2.62079030e-01f,+1.59606598e-02f,+2.19767749e-01f,
+1.17085418e-02f,+1.34452358e-01f,-1.13980539e-01f,-4.92465449e-03f,+1.50816858e-01f,
+1.69720210e-03f,+1.08023919e-02f,+1.34752408e-01f,-1.49533441e-02f,-1.02720186e-01f,
+2.46329397e-01f,+2.88171275e-03f,-7.46740848e-02f,+7.49434829e-02f,+8.92472416e-02f,
-1.15818232e-01f,+4.47874293e-02f,+8.63083452e-02f,-2.49568932e-02f,-3.03793680e-02f,
+1.00644849e-01f,-3.12395357e-02f,+1.77236442e-02f,-9.67187360e-02f,+2.18988415e-02f,
+5.70496470e-02f,+8.12066272e-02f,+2.57953107e-02f,-2.13513687e-01f,+1.26180172e-01f,
-3.11378967e-02f,+4.97625507e-02f,-2.07361996e-01f,-2.83570401e-02f,+8.19759369e-02f,
-4.56499681e-03f,+1.75065964e-01f,+1.52754426e-01f,-5.05473875e-02f,+1.10671937e-01f,
-4.33712974e-02f,-1.11702606e-01f,+2.55762249e-01f,-1.65770248e-01f,-2.30277125e-02f,
+1.00247651e-01f,-6.76633269e-02f,+1.98794324e-02f,+5.77136949e-02f,+6.90270513e-02f,
-8.53599086e-02f,+5.85040124e-03f,-1.14442579e-01f,+3.91965397e-02f,+2.78592706e-02f,
-3.45085673e-02f,-1.96907353e-02f,+5.12892529e-02f,-4.20521200e-02f,-1.01749435e-01f,
+8.34772810e-02f,+3.39514948e-02f,+9.99598056e-02f,-2.35195421e-02f,-1.94823910e-02f,
-5.80945946e-02f,-1.49681722e-03f,-1.90248638e-01f,+5.13245016e-02f,-1.08306199e-01f,
-1.82971228e-02f,-6.64906427e-02f,+5.30825667e-02f,-1.89478979e-01f,-6.59215376e-02f,
+1.54891470e-02f,+9.28460732e-02f,-1.48869470e-01f,+1.57352448e-01f,-2.77943034e-02f,
-2.32093967e-02f,+1.26940444e-01f,+2.54459903e-02f,+1.10465683e-01f,+1.48857221e-01f,
+1.24726661e-01f,+3.10989432e-02f,+3.64267305e-02f,-7.63709992e-02f,+2.45656613e-02f,
-2.39419136e-02f,+2.11677589e-02f,-1.48925837e-02f,+7.51760276e-03f,-7.39827603e-02f,
+2.05751862e-02f,+3.73131111e-02f,+2.02040728e-02f,+2.41937526e-02f,+1.32535994e-01f,
-3.70530528e-03f,+6.33665472e-02f,+8.74580257e-03f,-1.90193817e-01f,-2.80871503e-02f,
-6.46686628e-02f,-1.57206371e-01f,+4.02030163e-02f,-9.26387683e-02f,+7.09035844e-02f,
+1.28426939e-01f,-1.07591055e-01f,+5.99823631e-02f,-5.78074083e-02f,-3.42871323e-02f,
+1.66548923e-01f,+8.05570856e-02f,+1.18817404e-01f,+4.67561148e-02f,-3.51680547e-01f,
-1.90556273e-01f,+8.84364918e-02f,-4.88406839e-03f,-1.53575137e-01f,-1.46806255e-01f,
+4.08790447e-02f,-3.47219929e-02f,-3.53032984e-02f,-4.79304641e-02f,-6.62420243e-02f,
+1.72812313e-01f,+4.17216688e-01f,-1.09434472e-02f,+6.46151677e-02f,+1.15841128e-01f,
-1.02944039e-01f,+2.30352238e-01f,+1.68707162e-01f,-1.79949235e-02f,+2.89642327e-02f,
-9.17630270e-02f,-7.11896122e-02f,+1.11010358e-01f,+1.70318976e-01f,+3.00708245e-02f,
+1.35965511e-01f,-2.71816030e-02f,+2.23540127e-01f,+4.53357436e-02f,-8.99655521e-02f,
-9.51119140e-02f,+6.93476647e-02f,-3.48580062e-01f,-1.22384265e-01f,+2.95355897e-02f,
-1.65733039e-01f,+1.34027153e-01f,+5.67986667e-02f,+1.69803593e-02f,+3.22239697e-01f,
-3.26520830e-01f,-1.03237042e-02f,+2.79125553e-02f,+1.15128405e-01f,-2.39904113e-02f,
+4.29404248e-03f,-1.87935546e-01f,-1.84000414e-02f,-1.35282055e-02f,-2.73311697e-02f,
+1.37918383e-01f,-5.28629482e-01f,+1.19419843e-01f,-3.54985632e-02f,+3.54840904e-02f,
+1.29472986e-01f,-1.32263407e-01f,-1.48472982e-02f,+1.04288995e-01f,+5.83658554e-02f,
+9.30722132e-02f,-1.12682804e-01f,+7.74186403e-02f,+1.59713700e-02f,-3.16670060e-01f,
+8.67221653e-02f,+6.24736622e-02f,+9.66435224e-02f,-6.50642589e-02f,+7.35231489e-02f,
-2.73353811e-02f,-9.55459923e-02f,-9.53816343e-03f,-2.53507763e-01f,+3.49579811e-01f,
-2.42587309e-02f,+1.13265291e-02f,-1.16879746e-01f,+2.00045168e-01f,+1.53589293e-01f,
-1.07651435e-01f,+1.33903235e-01f,-8.19592923e-03f,-1.00985311e-01f,+1.45855829e-01f,
+2.58048981e-01f,+2.18596719e-02f,+1.86555758e-01f,-2.65924186e-01f,+1.64938524e-01f,
-2.88359113e-02f,+5.48340976e-02f,-9.10647213e-02f,+3.52094136e-02f,-1.10010788e-01f,
+7.47028738e-02f,-3.09836604e-02f,+2.09597915e-01f,-5.61323650e-02f,-1.42928520e-02f,
-4.58901197e-01f,+1.09698586e-01f,-4.17168178e-02f,+1.09757893e-01f,+8.62332731e-02f,
-8.08995888e-02f,-1.46767437e-01f,-2.12049298e-02f,+1.48768472e-02f,+2.38802396e-02f,
-1.74494833e-01f,-1.39626354e-01f,-7.90570118e-03f,-2.56586164e-01f,+1.60936236e-01f,
+3.95342298e-02f,-1.30512014e-01f,+8.73997957e-02f,-6.12195283e-02f,-9.67836156e-02f,
-7.25866407e-02f,+3.26645374e-02f,+3.40369297e-03f,-1.35332391e-01f,-3.37713845e-02f,
+1.62833780e-01f,+1.24874309e-01f,-1.12121627e-02f,-2.27169208e-02f,-1.64675906e-01f,
+1.49552494e-01f,-9.31367874e-02f,-5.13761188e-04f,-2.82053091e-02f,-2.24749260e-02f,
-8.00480694e-02f,+2.23662220e-02f,-1.93281010e-01f,+2.90628243e-02f,-1.53638840e-01f,
-6.86985329e-02f,-2.18444746e-02f,+9.71879736e-02f,+1.35450527e-01f,-1.36723876e-01f,
-8.16497430e-02f,-3.10134273e-02f,-1.04357686e-03f,-4.50976454e-02f,-1.43550158e-01f,
+1.06037922e-01f,+8.31246376e-02f,-4.29493412e-02f,-1.11260846e-01f,-6.08027838e-02f,
-5.21141551e-02f,+1.13965936e-01f,-3.33498478e-01f,-1.81338772e-01f,+1.24713928e-01f,
+5.45439199e-02f,-1.31511122e-01f,-2.88243182e-02f,+5.05285919e-01f,+1.85231362e-02f,
-5.17425500e-02f,+4.98736612e-02f,+1.72510296e-01f,+3.42210010e-02f,+5.27415462e-02f,
-4.51237038e-02f,+4.11756486e-02f,-8.67392421e-02f,-5.03642559e-02f,-7.25566819e-02f,
-1.47820842e-02f,-4.91286404e-02f,+2.84017503e-01f,+1.95923969e-01f,+1.30638108e-01f,
+1.62949830e-01f,-9.03172940e-02f,+3.91818956e-02f,-1.34492824e-02f,-8.74585658e-02f,
+1.03840508e-01f,-6.59602433e-02f,+1.02263860e-01f,-3.15385133e-01f,+8.24022070e-02f,
+2.79479977e-02f,-9.88690630e-02f,+5.87626267e-03f,+5.45268096e-02f,-1.93258524e-01f,
-2.12719701e-02f,+2.92819142e-01f,+1.22718886e-01f,+1.58251583e-04f,+1.31150424e-01f,
-6.31026477e-02f,+5.35877072e-04f,+5.05324500e-03f,-1.58821680e-02f,-1.26950219e-01f,
+8.86551961e-02f,-5.70721552e-02f,+8.01742263e-03f,-7.42341802e-02f,+1.05906032e-01f,
-1.85324520e-01f,+6.61053881e-02f,-1.07647657e-01f,-2.06755713e-01f,-4.69333902e-02f,
+1.55578200e-02f,-5.01360046e-04f,+7.35449493e-02f,+5.47674298e-02f,+5.95749356e-02f,
-9.99827757e-02f,+2.20896360e-02f,+1.05983175e-01f,+5.53026907e-02f,-1.23525873e-01f,
-2.79077627e-02f,-1.13890804e-01f,-2.52895504e-02f,-1.24228150e-01f,+3.55600089e-01f,
+2.77520902e-02f,-2.03905150e-01f,-6.12067170e-02f,+2.71868166e-02f,+1.59487396e-01f,
+2.84014791e-01f,-2.59502769e-01f,-5.60512161e-03f,+2.29743067e-02f,-2.56799757e-01f,
-1.08215719e-01f,+4.17523198e-02f,-3.55707482e-02f,-1.62977338e-01f,-6.46121502e-02f,
-1.12426095e-01f,-1.68266624e-01f,+2.27767348e-01f,-5.63230403e-02f,+1.16345370e-02f,
+9.51593071e-02f,-4.49375063e-02f,+9.12105292e-02f,+2.60723531e-01f,-2.02906147e-01f,
-8.05133730e-02f,-5.01484945e-02f,-1.44036695e-01f,+2.55579483e-02f,-6.99115843e-02f,
+9.30770263e-02f,+8.34522098e-02f,-1.22213624e-01f,+1.37932435e-01f,+5.25777116e-02f,
-7.02781752e-02f,+1.10897861e-01f,-1.00784309e-01f,-2.88055558e-02f,+4.32867035e-02f,
+1.65247265e-02f,-3.77560668e-02f,+6.95960298e-02f,+5.72864525e-02f,-1.79775786e-02f,
+8.52594897e-03f,+1.19023457e-01f,-1.89172670e-01f,+1.96516011e-02f,-2.40927309e-01f,
+6.59315959e-02f,+2.91163120e-02f,-6.98574185e-02f,+6.44101873e-02f,+4.29075249e-02f,
-5.13004735e-02f,+7.63132349e-02f,+1.25059649e-01f,-5.61277010e-02f,-2.01171830e-01f,
+7.51182958e-02f,-2.18109101e-01f,+5.40314950e-02f,-3.11065502e-02f,+6.66746125e-02f,
+1.22720590e-02f,+3.15616161e-01f,+3.85967344e-01f,-1.13070682e-01f,-1.51603222e-01f,
-3.18930410e-02f,+5.97631373e-02f,-1.15017571e-01f,-4.00042720e-02f,+5.78676686e-02f,
+2.42565870e-01f,+1.36460327e-02f,+1.43105894e-01f,-8.66794586e-02f,-1.59126461e-01f,
+9.03419033e-02f,-4.88435701e-02f,-3.20120864e-02f,+3.43034118e-02f,-1.97623689e-02f,
+1.40276447e-01f,+2.50526696e-01f,+9.75616276e-02f,+1.18440039e-01f,-4.69555557e-02f,
-1.06630929e-01f,+8.54142085e-02f,-5.25559345e-03f,+3.40350904e-02f,-1.35041595e-01f,
+1.43941849e-01f,+4.74143438e-02f,-1.24089152e-01f,+3.84806484e-01f,+1.59367383e-01f,
-1.64706141e-01f,-1.60735771e-02f,+2.30680153e-01f,-2.66256835e-02f,+1.01359330e-01f,
+1.97132260e-01f,+7.70398974e-02f,+6.38950840e-02f,-2.22506925e-01f,-8.78448784e-02f,
-1.53038278e-01f,-3.96049172e-02f,+4.80202883e-02f,-6.27582893e-02f,+2.96912223e-01f,
+5.26224682e-03f,+3.96047048e-02f,+6.04581051e-02f,+9.69057009e-02f,+4.78515476e-02f,
-1.44225687e-01f,+5.55068031e-02f,+1.14058897e-01f,+7.68704712e-03f,+1.13635294e-01f,
-8.28112066e-02f,-5.37087098e-02f,-2.95010163e-03f,+4.57043275e-02f,+2.90655404e-01f,
+1.30670786e-01f,-1.32960051e-01f,+4.93315458e-02f,+8.57129097e-02f,+2.39674962e-04f,
-5.02886809e-02f,-2.70370960e-01f,-1.70861587e-01f,+4.59328741e-02f,+1.05477847e-01f,
+1.63698956e-01f,-3.38394880e-01f,+7.43163750e-02f,+1.72654942e-01f,-8.51179138e-02f,
-3.49690788e-03f,+3.28798205e-01f,+6.76615909e-02f,-2.69345075e-01f,-1.15774302e-02f,
+1.01725005e-01f,+1.58053026e-01f,-1.06488369e-01f,-3.00923325e-02f,+8.99714530e-02f,
-1.96278334e-01f,+5.31205982e-02f,+3.23814541e-01f,-1.28896877e-01f,+4.06318307e-02f,
+7.25022852e-02f,-6.70563728e-02f,-9.67260450e-02f,+2.64748000e-02f,-1.68688476e-01f,
-1.52614638e-02f,-9.07527655e-02f,-9.87525731e-02f,+1.82377264e-01f,-4.47436906e-02f,
+4.91169340e-04f,+8.05704296e-03f,+1.50693148e-01f,-3.44682261e-02f,-1.53505623e-01f,
-4.75034863e-02f,+2.64132470e-01f,-4.34494577e-02f,-4.60135370e-01f,-9.97088701e-02f,
+1.77623928e-02f,+3.42314616e-02f,+9.64778960e-02f,-4.24085021e-01f,-1.60670564e-01f,
-1.61474757e-02f,-1.54067129e-01f,+1.29500508e-01f,-1.19561076e-01f,-3.62006545e-01f,
-1.74487114e-01f,+1.06370613e-01f,+2.35338528e-02f,+1.82691738e-02f,+6.69669658e-02f,
+1.24880485e-01f,+1.13855131e-01f,+6.22893907e-02f,-1.43628329e-01f,+9.75074247e-02f,
-1.22738086e-01f,-1.18727349e-02f,-3.18190716e-02f,+1.45337418e-01f,+1.69624388e-01f,
-7.78161883e-02f,+1.01838395e-01f,+1.09249808e-01f,-4.76152748e-02f,-1.13893464e-01f,
+8.68141502e-02f,+2.43151486e-02f,-1.58578619e-01f,+1.62734523e-01f,-3.21791023e-01f,
+3.00408900e-01f,+3.66561254e-03f,-8.05493444e-02f,+1.79630741e-02f,+1.19583756e-02f,
-5.56977019e-02f,-1.14171684e-01f,+2.69279301e-01f,+1.15820490e-01f,+1.54031068e-02f,
+2.49018334e-02f,+8.12097192e-02f,-7.68167339e-03f,-2.78555065e-01f,-4.72170301e-02f,
+1.03962962e-02f,+3.10067292e-02f,-1.04784898e-01f,+1.49930269e-02f,-7.37318918e-02f,
+1.60628706e-01f,-1.00199886e-01f,-8.04278105e-02f,-7.01561123e-02f,-2.97021389e-01f,
+1.52417570e-01f,+6.31416887e-02f,+2.34438572e-02f,-2.77751870e-02f,-1.30243212e-01f,
+1.23167455e-01f,-6.43044114e-02f,-1.10253282e-01f,+4.56736013e-02f,-1.43045053e-01f,
+1.10585816e-01f,-5.89135289e-02f,-3.43798622e-02f,+4.53820936e-02f,-5.97065128e-02f,
+1.39169127e-01f,+4.09933589e-02f,-1.37792259e-01f,+5.50403297e-02f,-4.03592102e-02f,
+4.43860069e-02f,+3.66886616e-01f,-1.81581408e-01f,+2.00453237e-01f,+6.15572855e-02f,
-3.42823923e-01f,-1.20331727e-01f,-1.09891511e-01f,-7.04015642e-02f,+2.00264335e-01f,
-8.12703744e-02f,-5.99933192e-02f,-1.13266714e-01f,-1.40257105e-01f,-3.84166092e-02f,
+1.97193101e-01f,-9.92983058e-02f,-2.72164255e-01f,+6.96545988e-02f,+3.03875148e-01f,
-2.16352269e-01f,-1.73820570e-01f,+4.72907089e-02f,-5.48167638e-02f,+8.81327987e-02f,
+2.17525497e-01f,-1.45508811e-01f,-2.73655485e-02f,-4.15970348e-02f,-5.05887531e-03f,
+8.52956474e-02f,-1.78265333e-01f,+1.31158501e-01f,-2.67552081e-02f,+3.76299769e-02f,
+1.96354538e-01f,+2.16619611e-01f,-2.20105335e-01f,+8.63182098e-02f,-2.88037141e-03f,
+5.62438928e-02f,-5.25677651e-02f,-7.03122690e-02f,-1.56645939e-01f,-1.59545317e-01f,
-2.80600280e-01f,+4.19158995e-01f,-1.10139169e-01f,-2.48455480e-01f,+1.51862325e-02f,
+1.42396346e-01f,+1.07834926e-02f,+1.67545930e-01f,-4.15321952e-03f,+3.79368030e-02f,
-1.59350216e-01f,+5.03832586e-02f,+2.89660513e-01f,+8.97060260e-02f,-2.26678923e-02f,
-6.47335425e-02f,-2.43610591e-01f,+1.74645633e-01f,+1.08032607e-01f,-4.09779474e-02f,
-9.57974568e-02f,-7.99947530e-02f,+9.86263901e-02f,+1.70909554e-01f,+4.03510220e-02f,
+6.88341334e-02f,+1.25737265e-01f,-3.00256982e-02f,+1.50271386e-01f,-1.51344761e-01f,
+3.86536047e-02f,+1.25432760e-02f,-1.40786290e-01f,+3.37777585e-02f,-5.17316833e-02f,
-4.81001064e-02f,+5.75582162e-02f,+6.99755251e-02f,-6.58489706e-04f,-1.86727231e-03f,
+1.42027885e-01f,-9.50660557e-02f,+1.92061350e-01f,-6.26098663e-02f,-1.77497398e-02f,
-8.73240456e-02f,+1.18449509e-01f,+1.47346305e-02f,+2.80887127e-01f,+3.01036565e-03f,
+5.08449674e-01f,+2.43928522e-01f,-1.82684585e-01f,+1.41441926e-01f,-1.75081626e-01f,
+2.13443730e-02f,-5.10886423e-02f,-1.63792521e-01f,-1.99686199e-01f,-8.96667540e-02f,
+1.33728743e-01f,+1.10089622e-01f,-1.51400670e-01f,-4.15362418e-02f,-2.00535595e-01f,
+2.96575055e-02f,-8.98495167e-02f,+2.05123215e-03f,-7.48532265e-02f,+1.13635100e-01f,
+1.84221417e-01f,-1.49807498e-01f,+1.03443533e-01f,+1.02728819e-02f,-6.62747212e-03f,
+1.83337957e-01f,+1.61168158e-01f,+1.58242881e-01f,-4.35501337e-02f,+2.90099736e-02f,
-3.01619977e-01f,+1.24217778e-01f,-5.96874692e-02f,-1.96012389e-02f,-1.62426792e-02f,
+1.22237660e-01f,-2.44989302e-02f,+1.24636866e-01f,-3.31803232e-01f,+3.32781315e-01f,
+1.19558021e-01f,-3.06168888e-02f,+2.86761105e-01f,-6.94051757e-02f,-1.03352785e-01f,
-1.32746268e-02f,+1.53949484e-01f,-2.38311663e-01f,+3.20401825e-02f,+1.14043452e-01f,
+4.85654436e-02f,+1.83638483e-02f,-5.18880971e-02f,-8.01357478e-02f,-2.03032382e-02f,
-9.17106271e-02f,-1.92009285e-03f,-1.46026701e-01f,-9.64107644e-03f,+1.16688132e-01f,
+6.12805933e-02f,-1.66221354e-02f,+8.82421508e-02f,+1.47622272e-01f,+4.80373576e-02f,
-1.78403571e-01f,+1.24285836e-02f,-4.63926680e-02f,-2.20776815e-03f,-4.39038463e-02f,
-5.62509559e-02f,+3.72584909e-02f,+5.79757318e-02f,+2.00534374e-01f,-4.80538420e-02f,
+7.26798251e-02f,-3.31564210e-02f,+7.68451318e-02f,-6.29384369e-02f,-5.48763648e-02f,
-5.53345568e-02f,-6.13490939e-02f,+1.40193962e-02f,+1.70845836e-01f,-7.37351889e-04f,
+1.62049711e-01f,-1.13006786e-01f,-1.92317758e-02f,+7.54215941e-02f,-9.17796977e-03f,
-2.38620508e-02f,-1.58643439e-01f,+5.59367202e-02f,+3.14178690e-02f,+2.00942025e-01f,
-2.90394593e-02f,-2.13928521e-02f,-8.20713565e-02f,-3.52080609e-03f,+2.60496382e-02f,
+9.08019468e-02f,-5.14828563e-02f,+9.56901237e-02f,+6.05999418e-02f,-2.82923449e-02f,
+1.24424472e-01f,+3.94348204e-02f,-1.61113292e-01f,+6.80738464e-02f,-3.20260040e-02f,
+1.48191694e-02f,-2.43725926e-02f,+4.23964858e-02f,-6.24909550e-02f,+1.53615683e-01f,
-2.31485575e-01f,-5.15146703e-02f,+1.12390712e-01f,-1.15484439e-01f,+5.72879463e-02f,
-6.26521260e-02f,+4.08468582e-02f,-4.39274982e-02f,+6.90994635e-02f,+9.15164277e-02f,
+6.70691058e-02f,+3.65009159e-02f,-6.43772855e-02f,-7.49664009e-02f,-2.96217743e-02f,
-1.91010028e-01f,-1.08434156e-01f,-4.29903828e-02f,-1.60701141e-01f,-5.39136864e-02f,
+2.02539340e-02f,+9.91298165e-03f,-6.40163124e-02f,+5.65641224e-02f,+1.20642439e-01f,
-1.13052793e-01f,+1.02661066e-01f,-1.91511326e-02f,-6.07880689e-02f,+1.08377524e-01f,
-3.78231965e-02f,+1.36518478e-01f,-3.37777697e-02f,+7.81295225e-02f,-9.51344818e-02f,
-1.52454019e-01f,+5.13395034e-02f,-5.14454432e-02f,+9.03551951e-02f,+6.30554110e-02f,
+7.17347814e-03f,-1.24551743e-01f,-1.07200116e-01f,+9.69691575e-02f,-3.92973460e-02f,
+1.07864521e-01f,+6.53034300e-02f,+1.34743810e-01f,-1.30920887e-01f,+4.70471941e-02f,
+1.41202539e-01f,-2.23488688e-01f,-7.36377537e-02f,-3.22563089e-02f,-1.27766818e-01f,
-7.63173625e-02f,-3.69346552e-02f,+4.36168499e-02f,+2.21335068e-02f,-4.60312935e-03f,
-2.81408406e-03f,+4.16578352e-02f,+3.52741815e-02f,-1.86847568e-01f,-2.83861849e-02f,
+1.79336980e-01f,-8.97821859e-02f,-1.14718325e-01f,-8.05855915e-02f,-1.21080957e-01f,
-2.75349077e-02f,+2.16676779e-02f,-1.62908912e-01f,-1.48102239e-01f,-9.66720134e-02f,
-1.36716953e-02f,+1.87332228e-01f,-2.38534451e-01f,+3.99256237e-02f,+6.27882555e-02f,
+1.66135848e-01f,+4.67421897e-02f,+1.43161610e-01f,-7.39566386e-02f,+1.56686842e-01f,
-6.78744614e-02f,+4.81918007e-02f,+4.42041419e-02f,-1.02858387e-01f,+4.83316816e-02f,
-1.48694694e-01f,+2.90939897e-01f,-8.71340558e-02f,+5.25526851e-02f,-1.07526571e-01f,
+1.25529274e-01f,+5.16864704e-03f,+3.91377136e-02f,-3.86425778e-02f,-2.06680950e-02f,
+1.50770403e-03f,-5.41109204e-01f,+3.61471670e-03f,-3.16125751e-02f,+1.32145673e-01f,
+7.18002990e-02f,+1.33692145e-01f,+1.57155231e-01f,-9.09794495e-02f,-1.32523254e-02f,
-2.89607178e-02f,-1.12233959e-01f,+6.92912862e-02f,+1.77404985e-01f,-8.52340274e-03f,
-5.68533726e-02f,+1.09522402e-01f,+1.71401966e-02f,-7.12224096e-02f,+2.29813322e-01f,
-4.10890840e-02f,+8.48603249e-02f,+6.18747473e-02f,-1.05045967e-01f,-5.66223785e-02f,
-1.14351884e-01f,+1.37576208e-01f,-6.70337379e-02f,+6.82778135e-02f,-1.62472259e-02f,
-1.77882507e-01f,-2.58321688e-02f,-2.02027753e-01f,+3.30739729e-02f,+6.89370111e-02f,
+2.43594088e-02f,-1.16256155e-01f,+6.53001666e-02f,-1.45794258e-01f,-1.44333765e-01f,
-8.33890960e-02f,-2.84289151e-01f,+1.49169981e-01f,+1.31881041e-02f,-3.65620665e-02f,
+3.50143388e-02f,+3.83980460e-02f,-2.11664766e-01f,+9.80730075e-03f,+4.43839803e-02f,
+1.37243448e-02f,-3.68631296e-02f,-1.05846832e-02f,-1.53229192e-01f,-1.95264295e-01f,
+1.85874835e-01f,-2.84530610e-01f,-2.94409860e-02f,+1.27838641e-01f,-2.13726908e-01f,
-8.58211070e-02f,+2.46009022e-01f,+4.29777354e-02f,+5.48123941e-02f,+6.62230924e-02f,
+6.77493513e-02f,-6.61888942e-02f,+6.30708262e-02f,+8.91065076e-02f,-1.87632773e-04f,
-5.08922599e-02f,-6.09430261e-02f,+7.25118220e-02f,+7.15468526e-02f,-8.54364485e-02f,
+5.14076538e-02f,-5.53296320e-02f,+3.96088623e-02f,-8.59686732e-02f,-6.55798241e-02f,
+3.55861112e-02f,-1.01792514e-01f,+2.61053562e-01f,-3.88958817e-03f,-1.22576497e-01f,
-5.45968674e-03f,+6.44614100e-02f,-1.45479932e-01f,+8.60753804e-02f,+7.07089575e-03f,
+1.44547001e-01f,-6.99314997e-02f,-1.92645997e-01f,-4.61667106e-02f,+4.91929799e-03f,
+1.18901230e-01f,+4.57162485e-02f,-2.12590247e-01f,+2.27705598e-01f,+1.44086525e-01f,
-2.56505841e-03f,+1.12430938e-01f,-8.19456875e-02f,-3.30530554e-02f,+6.90785199e-02f,
-1.29703298e-01f,+6.81503266e-02f,-6.49235398e-02f,+8.54948834e-02f,-8.25943872e-02f,
+7.89561868e-02f,-5.98737458e-03f,+3.20722139e-03f,+4.24917713e-02f,+7.62002915e-02f,
-5.29484302e-02f,-1.05428405e-01f,+2.26539765e-02f,-9.37428325e-03f,-1.11607321e-01f,
-3.11156306e-02f,-1.67742178e-01f,+7.33792782e-02f,-5.70770260e-03f,+5.13397902e-02f,
+8.72540101e-02f,-3.66417505e-03f,+1.15314521e-01f,-1.96950398e-02f,-7.39982873e-02f,
+8.03107917e-02f,-3.68800610e-02f,-3.14477980e-02f,+7.11252987e-02f,-1.86391100e-02f,
-2.72888504e-02f,+1.76447213e-01f,+5.05446941e-02f,-1.55706450e-01f,-1.61281470e-02f,
+4.56347838e-02f,-1.39798507e-01f,-1.85291208e-02f,+5.08456770e-03f,-3.60911414e-02f,
+1.08496055e-01f,+3.62650342e-02f,+7.14101270e-02f,+6.40873089e-02f,+2.56383102e-02f,
-1.19593740e-01f,-3.48318890e-02f,+5.19222505e-02f,+1.05266117e-01f,-9.53322276e-02f,
-2.95295902e-02f,-1.56302899e-01f,+1.55271679e-01f,+5.31851165e-02f,-3.88679700e-03f,
-2.68983562e-02f,+3.79792228e-02f,-2.25129068e-01f,+1.19954143e-02f,+1.91605166e-01f,
+8.54362398e-02f,-1.70024097e-01f,+3.15736905e-02f,-9.96295363e-02f,+5.58399558e-02f,
+1.02612749e-01f,-2.16052048e-02f,-7.77532831e-02f,-1.04550764e-01f,+1.56465143e-01f,
+7.16846362e-02f,-1.29247770e-01f,+5.90010695e-02f,+6.82035387e-02f,-5.10950275e-02f,
-5.36659546e-02f,-1.67188585e-01f,-1.87529266e-01f,+1.19978869e-02f,-8.96794547e-04f,
-1.53241336e-01f,+1.59496907e-02f,-6.17139041e-02f,-8.84470250e-03f,+2.04077706e-01f,
-1.04458816e-01f,+1.63105622e-01f,-7.99929202e-02f,-8.04916099e-02f,-2.96062659e-02f,
-4.21211012e-02f,-7.01258332e-02f,+2.11218953e-01f,+5.51051944e-02f,-1.83821082e-01f,
-1.17670096e-01f,+1.00742258e-01f,+1.24829970e-01f,-3.27867419e-02f,+5.36588114e-03f,
-1.20616332e-02f,-3.60005535e-02f,-1.21207505e-01f,+3.59452982e-03f,-8.67771432e-02f,
+7.25814775e-02f,+1.65265962e-01f,-5.38634136e-02f,-1.63794607e-02f,-2.62723595e-01f,
+1.11817926e-01f,-2.37837546e-02f,-6.19635265e-03f,+1.15706734e-01f,-1.03298038e-01f,
+6.66031539e-02f,+8.27310979e-02f,-3.59097235e-02f,+1.02472648e-01f,-5.36808856e-02f,
+7.05399225e-03f,-4.34673205e-02f,+1.17882401e-01f,-1.32262558e-01f,+2.45358925e-02f,
-1.37853548e-01f,+4.37537432e-02f,-2.64692158e-02f,-1.31448865e-01f,-4.86978516e-02f,
-8.64416584e-02f,+5.93237616e-02f,-1.49368510e-01f,+9.44418535e-02f,-2.91694310e-02f,
+1.08125202e-01f,+1.39027432e-01f,+1.72032844e-02f,-3.92844193e-02f,-4.96957712e-02f,
-1.74341172e-01f,+6.15226328e-02f,-5.14399298e-02f,-1.24636173e-01f,+9.22169238e-02f,
-2.26105079e-02f,+1.60011109e-02f,+7.87033513e-02f,-1.92639288e-02f,-1.24880681e-02f,
+1.49835154e-01f,-9.95026007e-02f,-2.90763900e-02f,-1.20796904e-01f,-2.23228723e-01f,
+3.56785743e-03f,+4.73466218e-02f,+9.70634222e-02f,-8.77240673e-02f,+1.50885314e-01f,
+2.45550424e-01f,-9.97917652e-02f,-8.86234641e-02f,+8.22938979e-02f,+1.37727544e-01f,
-9.38233361e-02f,-1.17449716e-01f,-2.03710824e-01f,+2.97984444e-02f,-1.60253480e-01f,
-1.04092225e-01f,-5.59913972e-03f,+5.67188971e-02f,-1.15096547e-01f,-1.60705343e-01f,
-8.34349543e-02f,+1.21364154e-01f,-2.27070432e-02f,+6.47460530e-03f,+6.55311272e-02f,
+1.17675968e-01f,+1.12581268e-01f,-2.19293728e-01f,-9.86294821e-03f,+3.76514904e-02f,
+1.32886395e-02f,-1.22903241e-02f,-1.57543972e-01f,+1.14810184e-01f,-1.30265608e-01f,
-2.61170585e-02f,+1.59898517e-03f,-5.15468046e-02f,-1.59779310e-01f,+5.18013798e-02f,
+1.27502857e-03f,+2.44883507e-01f,-3.64749623e-03f,-1.55730233e-01f,+1.30916357e-01f,
+9.44972485e-02f,+2.84764729e-02f,-3.68182473e-02f,+3.34279388e-02f,-2.12841451e-01f,
-1.20846957e-01f,-1.81947291e-01f,+2.05874965e-01f,-2.39491552e-01f,+6.70670241e-04f,
-3.02522838e-01f,+3.09384782e-02f,+2.36912116e-01f,+7.24410787e-02f,+1.68692887e-01f,
+1.77304983e-01f,+1.08504958e-01f,+7.64472261e-02f,-1.15867397e-02f,+5.86966127e-02f,
+3.16971540e-02f,+5.22995628e-02f,+1.45900682e-01f,-2.27067005e-02f,+7.20709339e-02f,
+8.30471814e-02f,+1.53947353e-01f,-1.12605840e-02f,+5.17006591e-02f,-3.90208960e-02f,
-8.52793083e-02f,-1.50222808e-01f,-8.74057710e-02f,+2.40980178e-01f,-7.50208721e-02f,
-6.68215007e-02f,+1.76242098e-01f,-1.15920298e-01f,-4.63599898e-02f,-7.55780488e-02f,
+8.97431653e-03f,-9.81507599e-02f,+1.07676871e-02f,-8.63525048e-02f,-9.07080919e-02f,
+3.39486264e-02f,+1.21575855e-01f,-1.36893123e-01f,-1.60784885e-01f,-3.41786607e-03f,
-1.85419858e-01f,-1.33059472e-01f,+2.52366394e-01f,-7.57895261e-02f,+9.27757174e-02f,
-6.16661198e-02f,-4.50467244e-02f,-9.50154215e-02f,+1.83369871e-02f,-5.00432663e-02f,
+9.22950171e-03f,+1.95766017e-01f,-1.85710087e-01f,+3.47936526e-02f,+8.30979794e-02f,
+1.65285140e-01f,-1.17285401e-01f,-4.41966951e-02f,+2.35689394e-02f,+3.87272127e-02f,
+6.72604591e-02f,-1.46077618e-01f,-3.06885056e-02f,+1.33916602e-01f,-7.33017474e-02f,
-7.16777369e-02f,-3.12559791e-02f,+8.27938598e-03f,-8.50579590e-02f,-9.62446406e-02f,
-3.51516530e-02f,-1.89362802e-02f,+2.16459677e-01f,+7.48412013e-02f,+1.50289625e-01f,
+1.29070446e-01f,-5.92262149e-02f,+9.87557769e-02f,+1.08129948e-01f,-3.36455777e-02f,
-1.39038637e-02f,-1.14542857e-01f,-1.13517411e-01f,-8.90388042e-02f,+1.16520394e-02f,
-1.50490431e-02f,+5.49466982e-02f,-8.34263787e-02f,-9.81073454e-03f,+1.09399848e-01f,
+4.67642732e-02f,-1.42560139e-01f,-1.06818572e-01f,+5.81784882e-02f,+5.99192083e-02f,
-1.61255673e-02f,+4.19184044e-02f,-2.22633943e-01f,+8.34804848e-02f,+7.81911835e-02f,
+1.45186465e-02f,+1.88188832e-02f,+1.09241806e-01f,+6.03888836e-03f,+5.00256829e-02f,
-2.46986351e-03f,+9.66673251e-03f,-1.54118851e-01f,-1.04460754e-01f,-7.21452236e-02f,
+1.15430700e-02f,-1.53981879e-01f,-4.16178219e-02f,-1.93244196e-03f,-1.62462145e-01f,
+5.29277362e-02f,+1.19576372e-01f,-4.37086001e-02f,+1.05808362e-01f,+5.51213808e-02f,
-1.46860197e-01f,-1.79643601e-01f,-2.20051482e-01f,-1.10855065e-02f,+1.25388443e-01f,
+1.62744239e-01f,-2.61985213e-01f,-2.88579226e-01f,-8.84785652e-02f,+8.11208561e-02f,
+6.50936272e-03f,-1.99159950e-01f,-8.11754689e-02f,+2.73812413e-01f,-4.04273458e-02f,
+1.04451776e-01f,+1.39340945e-02f,+4.78528142e-02f,-8.67306590e-02f,+7.40151503e-04f,
-1.78344734e-02f,-3.62922139e-02f,+3.27204838e-02f,+7.81263933e-02f,+1.80850208e-01f,
-7.46997893e-02f,-8.46339241e-02f,-2.97463872e-02f,-6.47197887e-02f,-1.65233940e-01f,
-6.18261434e-02f,-2.43968051e-02f,-1.59995899e-01f,-1.19450279e-02f,-9.64351743e-02f,
-2.12660998e-01f,-8.20418596e-02f,-6.43250868e-02f,+8.66283774e-02f,-9.55763981e-02f,
-6.83001354e-02f,+1.26943618e-01f,+1.86733440e-01f,-6.46674111e-02f,+3.69697995e-02f,
+5.65228164e-02f,+1.27453640e-01f,-1.71985216e-02f,-1.93357572e-01f,-1.54036388e-01f,
+6.09996989e-02f,-1.18826726e-03f,-1.18419726e-03f,-5.79376891e-02f,-1.68795824e-01f,
+5.08038513e-02f,+1.83408074e-02f,-3.87997255e-02f,-1.52258471e-01f,+2.40556344e-01f,
-4.85098250e-02f,-6.21162988e-02f,+7.02151358e-02f,+3.72326677e-03f,-1.67306378e-01f,
-7.63938576e-02f,-1.49415866e-01f,-7.32298195e-02f,+1.59818336e-01f,-8.07968229e-02f,
-6.98745102e-02f,-7.14654699e-02f,-3.82457376e-02f,+1.43210934e-02f,-6.86305836e-02f,
+2.29209010e-02f,+1.27590671e-01f,-1.11040451e-01f,-4.32678983e-02f,-3.97935063e-02f,
+1.68092418e-02f,+2.41380498e-01f,+3.26803774e-02f,+1.19187705e-01f,-2.04151154e-01f,
+3.59659940e-02f,+1.14356212e-01f,+2.23510098e-02f,+6.69433475e-02f,-2.99936030e-02f,
-8.47052038e-02f,+1.58194527e-01f,-1.52233047e-02f,-8.59165490e-02f,+1.88040778e-01f,
-1.11284852e-01f,+2.10352745e-02f,-1.40041128e-01f,-5.54901920e-03f,-1.98663294e-01f,
+4.11086064e-03f,-2.94991843e-02f,+5.54237403e-02f,+1.36517696e-02f,-1.09865442e-01f,
-2.01202899e-01f,-8.23983699e-02f,+1.00244969e-01f,-7.34645501e-02f,+6.40195748e-03f,
+1.03616811e-01f,+3.00730579e-02f,+4.94537950e-02f,+2.54841819e-02f,+1.24727182e-01f,
+6.23586699e-02f,+1.11640424e-01f,-1.29656538e-01f,+2.74150223e-02f,+1.14791162e-01f,
-1.06520154e-01f,-3.35218608e-02f,+3.29256915e-02f,+1.61750019e-01f,-8.05733651e-02f,
-6.19201064e-02f,-8.93196240e-02f,-1.06061958e-01f,-1.64472926e-02f,+2.08295230e-02f,
-1.21857755e-01f,-8.46432820e-02f,-9.93835852e-02f,+5.60261123e-02f,-1.35663092e-01f,
-1.70323774e-02f,-1.20801739e-01f,+1.01610206e-01f,+1.19607216e-02f,-5.89006860e-03f,
+2.14071214e-01f,+5.23067154e-02f,+6.80251271e-02f,+2.20001101e-01f,-4.60185446e-02f,
+8.04205164e-02f,+8.60797092e-02f,-3.53770591e-02f,-1.95343927e-01f,+2.15543457e-03f,
+7.05644041e-02f,+1.87860307e-04f,+1.44271046e-01f,+1.64826170e-01f,-7.22758844e-02f,
+2.23850925e-02f,-1.03183404e-01f,-3.05078290e-02f,+3.12231183e-02f,-2.28814393e-01f,
-5.13233617e-02f,-9.94426757e-02f,+2.42198966e-02f,-9.19232368e-02f,-9.96875484e-03f,
-1.16832722e-02f,-7.31017962e-02f,+1.81337953e-01f,-9.55455229e-02f,-5.98141970e-03f,
-1.25760054e-02f,+7.44758695e-02f,+3.75076532e-02f,+4.62790951e-02f,+4.76771258e-02f,
-1.17417887e-01f,+8.83319825e-02f,+3.48705612e-02f,+1.87839016e-01f,-1.40832409e-01f,
+5.15496768e-02f,+8.34186673e-02f,-1.48757547e-01f,-1.44991428e-01f,+9.91391242e-02f,
-1.40035853e-01f,-6.91469684e-02f,+1.53461695e-01f,-1.69551268e-01f,+4.37706634e-02f,
+8.52948278e-02f,+1.61819503e-01f,-1.50944233e-01f,+3.80163603e-02f,-6.05050400e-02f,
+1.68747418e-02f,+5.09381928e-02f,+8.09836295e-03f,+3.78471315e-02f,+5.24210297e-02f,
-1.63488314e-02f,+3.73724215e-02f,+2.07554087e-01f,+6.47102147e-02f,-4.43893075e-02f,
-3.40317972e-02f,+4.19029817e-02f,-1.53833821e-01f,-1.30191281e-01f,+5.57957739e-02f,
-8.05910444e-04f,+7.47292861e-02f,-2.92299315e-02f,+3.48929502e-02f,-1.86601713e-01f,
-1.05525620e-01f,+6.91357404e-02f,-3.15604843e-02f,-1.25164548e-02f,-3.82580943e-02f,
+1.59325838e-01f,+4.47108299e-02f,-8.43740162e-03f,+2.45864354e-02f,+1.53279349e-01f,
+6.53092489e-02f,-1.26311556e-01f,-2.49470286e-02f,+1.39195025e-01f,-1.73933327e-01f,
+3.51549909e-02f,+6.28547445e-02f,+1.47622544e-02f,-2.01436892e-01f,-1.73081055e-01f,
+7.52786994e-02f,+5.77802174e-02f,+1.31228268e-01f,-4.30315780e-03f,+1.14856727e-01f,
+1.33480191e-01f,+9.30321440e-02f,+5.36050126e-02f,-7.38752121e-03f,-1.02389425e-01f,
-1.06987141e-01f,-7.23081976e-02f,-5.27894758e-02f,-1.30573422e-01f,-1.21637255e-01f,
-1.65126547e-01f,+7.57304877e-02f,+4.37675528e-02f,+6.65495768e-02f,-8.98719281e-02f,
-3.91019098e-02f,+6.63099904e-03f,+1.38190001e-01f,+1.15698762e-02f,+5.38410917e-02f,
+1.95434820e-02f,+1.92672126e-02f,-5.92254587e-02f,-8.03465396e-02f,+2.65700673e-03f,
+5.54567240e-02f,+1.11155612e-02f,-2.30085611e-01f,-4.11287025e-02f,+7.39627704e-03f,
+7.91735426e-02f,+5.59678115e-03f,-2.69302707e-02f,-3.90382931e-02f,-3.51137489e-01f,
-9.91347954e-02f,+1.18848071e-01f,+5.53246355e-03f,+6.99953288e-02f,+6.61117807e-02f,
-5.98175935e-02f,-1.30858287e-01f,-4.99334303e-04f,+1.58282742e-01f,-1.03187405e-01f,
-1.16817415e-01f,-2.99132639e-03f,-1.94759853e-02f,+3.17567028e-02f,-3.93971987e-02f,
+1.68848205e-02f,-1.82113662e-01f,+1.15720397e-02f,-6.42330898e-03f,-1.05314828e-01f,
+1.25602007e-01f,-1.58498526e-01f,+2.11939692e-01f,+2.15518661e-02f,-7.40185753e-02f,
+1.82006478e-01f,+4.56062034e-02f,+1.19863106e-02f,-7.75444731e-02f,+1.71936993e-02f,
+3.14852186e-02f,-1.62253693e-01f,-1.65991992e-01f,+6.35817796e-02f,-1.11126892e-01f,
-1.83046669e-01f,-2.01086141e-03f,+1.23766772e-01f,+8.21975321e-02f,-1.53250813e-01f,
+4.18692529e-02f,-7.33285323e-02f,+1.15895197e-01f,-1.44123808e-01f,-1.86212286e-02f,
+3.44821513e-02f,+3.47715765e-02f,+7.63015673e-02f,+4.63141268e-03f,+1.27544627e-01f,
-2.17875406e-01f,+3.89770307e-02f,-1.00543171e-01f,-6.76902607e-02f,-1.18379228e-01f,
+7.11745443e-03f,+3.88851687e-02f,+2.16883309e-02f,+9.18810591e-02f,-2.04081759e-01f,
-8.01481232e-02f,+7.68508464e-02f,+2.81930659e-02f,+8.16143875e-04f,}; 
k2c_tensor conv2d_2_kernel = {&conv2d_2_kernel_array[0],4,2304,{ 3, 3,16,16, 1}}; 
float conv2d_2_bias_array[16] = {
-3.19892429e-02f,-1.75398141e-02f,-2.99162231e-02f,+9.82564408e-03f,-3.93441468e-02f,
-3.33010741e-02f,+4.27876040e-02f,-3.51728201e-02f,+2.13741213e-02f,-2.63873562e-02f,
+2.79616099e-03f,-1.71704423e-02f,+2.92056100e-03f,-7.33265700e-03f,-5.50720561e-03f,
+2.03044116e-02f,}; 
k2c_tensor conv2d_2_bias = {&conv2d_2_bias_array[0],1,16,{16, 1, 1, 1, 1}}; 

 
float batch_normalization_2_output_array[16384] = {0}; 
k2c_tensor batch_normalization_2_output = {&batch_normalization_2_output_array[0],3,16384,{32,32,16, 1, 1}}; 
size_t batch_normalization_2_axis = 2; 
float batch_normalization_2_mean_array[16] = {
-5.04502714e-01f,-5.03635287e-01f,-5.72047345e-02f,+5.61496854e-01f,+1.05628513e-01f,
+4.45751190e-01f,+4.23615217e-01f,+1.06743002e+00f,+1.01221514e+00f,-1.11137807e+00f,
-5.45120358e-01f,+8.44080001e-02f,+3.29409927e-01f,-3.12110007e-01f,-1.90664053e-01f,
+5.16554356e-01f,}; 
k2c_tensor batch_normalization_2_mean = {&batch_normalization_2_mean_array[0],1,16,{16, 1, 1, 1, 1}}; 
float batch_normalization_2_stdev_array[16] = {
+1.08451986e+00f,+1.43133783e+00f,+1.56235564e+00f,+9.97095287e-01f,+1.07906067e+00f,
+9.72933173e-01f,+1.00306380e+00f,+1.58770061e+00f,+1.32145262e+00f,+1.22289336e+00f,
+9.82733607e-01f,+1.48770261e+00f,+9.08943117e-01f,+1.29588723e+00f,+9.46278036e-01f,
+9.22395706e-01f,}; 
k2c_tensor batch_normalization_2_stdev = {&batch_normalization_2_stdev_array[0],1,16,{16, 1, 1, 1, 1}}; 
float batch_normalization_2_gamma_array[16] = {
+7.34757721e-01f,+1.23618519e+00f,+1.35420108e+00f,+1.01466370e+00f,+9.11659598e-01f,
+5.35001814e-01f,+9.16117787e-01f,+1.00555730e+00f,+7.95812488e-01f,+1.01564205e+00f,
+7.74248362e-01f,+1.36273432e+00f,+5.98796070e-01f,+1.12985265e+00f,+7.86180913e-01f,
+6.47538245e-01f,}; 
k2c_tensor batch_normalization_2_gamma = {&batch_normalization_2_gamma_array[0],1,16,{16, 1, 1, 1, 1}}; 
float batch_normalization_2_beta_array[16] = {
+5.73240399e-01f,-1.67331159e-01f,-2.64172524e-01f,-7.19516456e-01f,+2.19486848e-01f,
+3.19136500e-01f,-3.43978480e-02f,-2.27655441e-01f,+5.84968090e-01f,+2.52704710e-01f,
+7.00105429e-01f,-1.53455600e-01f,+1.21877110e-02f,-1.19085029e-01f,+4.44202632e-01f,
-7.28392661e-01f,}; 
k2c_tensor batch_normalization_2_beta = {&batch_normalization_2_beta_array[0],1,16,{16, 1, 1, 1, 1}}; 


float add_output_array[16384] = {0}; 
k2c_tensor add_output = {&add_output_array[0],3,16384,{32,32,16, 1, 1}}; 
size_t add_num_tensors0 = 2; 


size_t conv2d_3_stride[2] = {2,2}; 
size_t conv2d_3_dilation[2] = {1,1}; 
float conv2d_3_output_array[8192] = {0}; 
k2c_tensor conv2d_3_output = {&conv2d_3_output_array[0],3,8192,{16,16,32, 1, 1}}; 
float conv2d_3_padded_input_array[18496] = {0}; 
k2c_tensor conv2d_3_padded_input = {&conv2d_3_padded_input_array[0],3,18496,{34,34,16, 1, 1}}; 
size_t conv2d_3_pad[4] = {1,1,1,1}; 
float conv2d_3_fill = 0.0f; 
float conv2d_3_kernel_array[4608] = {
-6.68487921e-02f,+4.44489047e-02f,+7.81153329e-04f,+9.81931686e-02f,-6.23574778e-02f,
+5.49095124e-03f,+3.63074243e-02f,+1.58832711e-03f,-9.37749594e-02f,-8.33125263e-02f,
+3.82440574e-02f,-7.56134838e-02f,-6.60993531e-02f,-1.49949938e-01f,-8.28180462e-02f,
-2.11147051e-02f,+2.24404454e-01f,-1.03010230e-01f,+1.20294772e-01f,-1.19690314e-01f,
+5.31443674e-03f,-9.56348851e-02f,+7.15191960e-02f,-1.14452943e-01f,-1.99965239e-01f,
+7.54554197e-02f,+1.24363609e-01f,+5.91214448e-02f,-1.29282281e-01f,+1.37401611e-01f,
-1.17920805e-02f,-2.50086579e-02f,+1.33354319e-02f,+5.68068735e-02f,+1.18877776e-02f,
+7.09402114e-02f,-1.25173421e-03f,-8.34007189e-02f,+4.46126685e-02f,-2.07405277e-02f,
-4.10872214e-02f,-7.05615133e-02f,+2.42415816e-02f,-1.61227182e-01f,+2.41952743e-02f,
+7.35828280e-02f,-6.72681779e-02f,+7.03680282e-03f,+7.84717966e-03f,+5.31489365e-02f,
-4.31733802e-02f,+7.04328530e-03f,+3.72032598e-02f,+1.64209351e-01f,+3.84507775e-02f,
+3.85284461e-02f,+2.96248235e-02f,+7.74819776e-02f,-1.34218097e-01f,-5.30011132e-02f,
+4.06510569e-02f,+1.38892040e-01f,-3.65875885e-02f,-7.24168448e-03f,-3.20221670e-02f,
-2.34672546e-01f,+9.22286063e-02f,-3.44247408e-02f,+5.16164750e-02f,-1.53678894e-01f,
+1.65649187e-02f,-1.70819666e-02f,+1.79115042e-01f,+4.78681922e-02f,+4.87348437e-02f,
-4.53263633e-02f,+2.25402802e-01f,-9.55043063e-02f,-1.04949534e-01f,+1.15278806e-03f,
-1.35939464e-01f,-1.13421278e-02f,-5.11985570e-02f,-7.51737803e-02f,+1.84461921e-02f,
-1.31575838e-02f,+4.00137976e-02f,-5.39315008e-02f,-2.06783377e-02f,+4.45709638e-02f,
-1.33496761e-01f,+2.61344947e-03f,-8.76227394e-02f,+1.33702338e-01f,-5.86163774e-02f,
-6.18333695e-03f,-1.19503230e-01f,-5.57195344e-05f,-4.88221645e-02f,+2.80478090e-01f,
+1.20216087e-02f,-1.65057555e-01f,+1.03701428e-01f,+8.31979513e-02f,-2.02257670e-02f,
-1.47354240e-02f,-7.40556344e-02f,+1.31011931e-02f,-1.19240001e-01f,+4.73737419e-02f,
-1.03825107e-01f,-2.08532773e-02f,+4.90784012e-02f,+3.81045379e-02f,-1.43740382e-02f,
+1.32087409e-01f,-5.32410406e-02f,-1.12887800e-01f,+6.72079697e-02f,-1.82148635e-01f,
+1.04934372e-01f,+1.70251224e-02f,+1.85469519e-02f,-7.55679049e-03f,+1.03232428e-01f,
+6.22852184e-02f,-7.97799155e-02f,+4.20616008e-02f,-3.76324281e-02f,+2.64294118e-01f,
-4.49959934e-02f,+3.36243473e-02f,+3.36975232e-02f,-3.85036469e-02f,+9.39759389e-02f,
-1.52016997e-01f,+4.15010117e-02f,-6.06866218e-02f,+4.14347500e-02f,-2.71048211e-02f,
-4.99006361e-02f,-1.03126563e-01f,+2.44336743e-02f,+8.94455388e-02f,-3.50187793e-02f,
-5.26918881e-02f,-1.48967803e-02f,-9.38732475e-02f,-5.77062331e-02f,+3.91150489e-02f,
-3.26962844e-02f,+3.63762528e-02f,-7.25117922e-02f,-8.21784511e-03f,-2.84742266e-02f,
-2.59157773e-02f,+2.82169785e-02f,-2.02400740e-02f,-1.89646799e-02f,-4.37527113e-02f,
-1.84454486e-01f,+5.88543899e-02f,+8.34180117e-02f,-1.35796577e-01f,-1.20313093e-02f,
-1.65915817e-01f,+2.52149757e-02f,-5.38068935e-02f,-2.16059703e-02f,-5.22358380e-02f,
-9.28445384e-02f,-8.99568573e-03f,+1.15620688e-01f,+9.88204926e-02f,+4.45607267e-02f,
+1.12372957e-01f,+2.48354301e-02f,+7.99679831e-02f,-2.41622135e-01f,-1.27965540e-01f,
+1.10711455e-01f,+2.15669602e-01f,+5.47615923e-02f,+1.70306992e-02f,-8.56223926e-02f,
+9.64050181e-03f,-1.99913811e-02f,-1.87382603e-03f,-7.10441321e-02f,+8.98096561e-02f,
-6.47810176e-02f,-1.46775469e-01f,+3.77507918e-02f,-2.08395109e-01f,-2.94998437e-02f,
-2.23917440e-02f,-1.29725218e-01f,-2.50000730e-02f,+3.68663259e-02f,-1.84719577e-01f,
+1.03375420e-01f,+2.93038469e-02f,+4.54892926e-02f,+5.12083471e-02f,-3.02428342e-02f,
+1.32513285e-01f,+2.46916991e-02f,+5.45532303e-03f,-2.14686751e-01f,+1.02019414e-01f,
-1.20101452e-01f,-1.18732929e-01f,+1.43451869e-01f,-8.26604217e-02f,-1.66599706e-01f,
+2.49396227e-02f,-9.88293663e-02f,+1.47215864e-02f,-8.85645151e-02f,-8.72613490e-03f,
+1.40144363e-01f,+7.67830685e-02f,-8.08904786e-03f,-1.37813926e-01f,-1.32242128e-01f,
+1.78412125e-02f,+1.58771351e-01f,+1.27917513e-01f,+8.26410577e-02f,-3.59604731e-02f,
